A,B,C,uot_weight,final_weight
-2.4129430600935993,-0.5228515442890977,-0.4528636475578349,2.0316797493930765,5.408328164314428
-2.4009251099620847,-0.5743785079408409,-0.3635484818653965,2.050286650506604,5.457859704594319
-2.4009251099620847,-0.5490723505894892,-0.48014560279304513,2.0350165147235537,5.417210628157424
-2.4009251099620847,-0.5285774871794285,-0.5313903533419589,2.008165350579888,1.8399839528954745
-2.3883625932405947,-0.6066347579677026,-0.37690090698832357,2.0333137462087065,5.412677861160602
-2.3883625932405947,-0.6051865739313765,-0.38809487168396345,2.02932025752406,5.402047200824744
-2.3883625932405947,-0.5883562358767512,-0.4656399898211322,2.011056141320842,5.353428153414498
-2.3883625932405947,-0.5775999440494226,-0.4982529723416873,2.009747814733991,5.349945390183772
-2.3883625932405947,-0.5735492958124087,-0.5090167792788473,2.015931122801379,1.847099351169455
-2.3883625932405947,0.9585170039577994,-0.45467284655712653,1.7272138675275603,2.8962690486305056
-2.3883625932405947,0.9613975054230973,-0.44366318476814753,1.7242933189475627,2.8913717428501986
-2.3752593365934187,-0.6382977718582097,-0.39115976076814424,2.017820612330853,5.371435164160684
-2.3752593365934187,-0.6365384565447287,-0.40280049342118845,2.005797248788132,5.339428990108247
-2.3752593365934187,-0.6135321352976353,-0.4946686434107271,1.9915738012202335,5.3015661959852585
-2.3752593365934187,-0.6053323123521599,-0.5171581552325376,1.9925286394130428,1.8256567972084445
-2.3752593365934187,-0.6008713190035507,-0.5283122911140984,1.9925848381727658,1.8257082893906156
-2.3752593365934187,-0.5961713918215844,-0.5394014771825123,1.9901127125247438,1.8234432012490494
-2.3752593365934187,-0.5912339624496098,-0.5504223355642796,1.991893959192186,1.8250752706816273
-2.3616193313994644,-0.6672395240249513,-0.4183860779233525,2.009744627681822,5.349936906256124
-2.3616193313994644,-0.6454027330152972,-0.5018492132382417,1.981987176040259,5.276046615462259
-2.3616193313994644,-0.6412645036003729,-0.5135738263015777,1.982400655400538,1.8163770194985023
-2.3616193313994644,-0.6322356678787684,-0.5368381184123644,1.9762138816823576,1.8107083805299224
-2.3616193313994644,-0.6222129569774989,-0.5598322436476465,1.97769880511082,1.8120689434332016
-2.3616193313994644,-0.6112085820259172,-0.5825281872077982,1.982537080643449,1.8165020192937882
-2.3616193313994644,-0.605342413978962,-0.5937556846471065,1.981542756435316,1.8155909685247813
-2.3616193313994644,1.0293280862316652,-0.44244482650785016,1.7277688983143982,2.897199748944565
-2.3474467325364485,-0.6945458962891021,-0.4473026158557676,1.974601259806663,6.403651946643134
-2.3474467325364485,-0.6915719527107033,-0.4597323216737151,1.9723452715094714,6.396335753675483
-2.3474467325364485,-0.6290930863893294,-0.6159526318635384,1.9746571680592684,2.2041786805725314
-2.3474467325364485,1.0615900919489012,-0.4473026158557676,1.7107303963843206,3.4947401083135876
-2.3474467325364485,1.06890389863161,-0.40978706253071223,1.725509268735225,3.524930907559052
-2.3474467325364485,1.0708033507539179,-0.39721909692863155,1.7261553435999168,3.526250731972873
-2.3474467325364485,1.0724325284112985,-0.3846261137702812,1.7267527127807751,3.5274710587059612
-2.332745857115278,-0.7234581275613493,-0.4650027440282741,1.943267874290772,10.409204635651788
-2.332745857115278,-0.7200995461706362,-0.477839691222357,1.935736231886071,10.368861043257603
-2.332745857115278,-0.6652730688201477,-0.6149261942688853,1.9559864506256692,2.1833377984266047
-2.332745857115278,1.106230040370831,-0.374086066752765,1.7290836639158838,3.5322328075119684
-2.332745857115278,1.1090479939387654,-0.32165108563226447,1.7241488081000513,6.172178311907085
-2.332745857115278,1.1087660697850399,-0.2954056199789502,1.7231745128517564,6.168690489990166
-2.3175211831650158,-0.7437877360647233,-0.5099225748814104,1.9129218609729426,3.52686541968608
-2.3175211831650158,1.140429083675547,-0.28114676619912954,1.7245273676139445,6.173533494714065
-2.3175211831650158,1.1395541899677695,-0.267584260634159,1.7234993325832613,6.169853292929597
-2.3175211831650158,1.1369311078510536,-0.24050678777895024,1.7171531130025353,6.147134836915393
-2.3175211831650158,1.135183718458338,-0.22700006854924898,1.7157074795352563,6.141959699194225
-2.3175211831650158,1.0684311138732503,-0.017303869398201666,1.6471319594129743,1.6601692149542235
-2.3017773482688324,-0.7655026552535311,-0.5434716939873102,1.9001833599814804,3.5033793695958932
-2.3017773482688324,-0.7604519994697777,-0.5568928257621217,1.896678840120893,3.496918065472042
-2.3017773482688324,-0.6944273292905278,-0.686390604601654,1.9289364425238518,2.153143670487963
-2.3017773482688324,1.153436219352417,-0.1547734371435898,1.6970320814669275,3.7177007974828284
-2.3017773482688324,1.1417794656597813,-0.11375360174084509,1.6835920498533612,3.688257620306851
-2.3017773482688324,1.0768868727368495,0.03109344775594468,1.6343809589483507,1.6473172887255685
-2.2855191481513515,-0.7906507024030048,-0.5646283719959323,1.8789855375511864,3.464296818223919
-2.2855191481513515,1.1678210308156958,-0.09332283527571088,1.6766229395655652,5.4644254616545735
-2.2855191481513515,1.1629071295233346,-0.07940055463158316,1.6694175346145224,3.6572054043924562
-2.2855191481513515,1.157694898062804,-0.06555006703794695,1.6660981958778025,3.6499337043442437
-2.2855191481513515,1.1521859241302983,-0.05177559148749579,1.6630481437671585,3.6432519325097954
-2.2855191481513515,1.140284551076139,-0.024471435438807476,1.6530018085447449,1.666085524676284
-2.2855191481513515,1.0976515073811455,0.05518572797312181,1.6314277436870184,1.6443406983959488
-2.2855191481513515,1.0895580307303576,0.06809047902885827,1.6286314924558822,1.6415223144864624
-2.2687515352178247,-0.8148745925243457,-0.5864851853948255,1.8612353542866438,3.431570699700203
-2.2687515352178247,-0.7586662571716137,-0.6967296525112083,1.878123333380536,3.4627071672631473
-2.2687515352178247,1.1630672303603307,-0.001614606351210941,1.649031490539285,1.662083781107061
-2.2687515352178247,1.149004439323368,0.025967511039562213,1.6407441949190364,1.6537308905051056
-2.2687515352178247,1.1415308074155979,0.03960482881129786,1.6474840485379632,1.6605240909086885
-2.2687515352178247,1.1337653567744495,0.05313410333991407,1.6366851446617385,1.6496397123571693
-2.2687515352178247,1.090646682748619,0.1190168090436639,1.612287397481918,1.625048853955873
-2.251479617045584,1.161774728888597,0.06398785470718098,1.6444493683950965,1.6574653908928043
-2.251479617045584,1.1448946089707042,0.0914933625114293,1.6231907347724472,1.6360384925252376
-2.251479617045584,1.1360139759799268,0.10506242842110683,1.6137194779300252,1.6264922694999027
-2.251479617045584,1.1268432047360692,0.11850351206872173,1.6094401454126748,1.6221790655302648
-2.251479617045584,1.1076425090401465,0.14498539567241714,1.5970758410866925,1.60971689618857
-2.251479617045584,1.0976184333059915,0.15801812899021636,1.5868046112849463,1.5993643683178485
-2.233708654828221,1.1338204690388325,0.15801812899021608,1.5995576299556034,0.8972078490485202
-2.233708654828221,1.1129180747188796,0.18467376797754106,1.586187383934687,1.3879582865926634
-2.233708654828221,1.0908833545635628,0.21072052274719058,1.5711865003733003,1.3748320942801313
-2.215444061772978,-0.8498468806163014,-0.7155241138442008,1.816456690414495,2.168003592764883
-2.215444061772978,1.1990599028943083,-0.7445793267809236,1.8924771247519443,1.281559416255115
-2.215444061772978,1.2081315425664452,-0.7301149307386035,1.8818154433964178,1.2743394726396389
-2.215444061772978,1.115602130740087,0.22504488719851307,1.5596325286546153,1.3647220461531402
-2.215444061772978,1.1038570038785067,0.23817828397388044,1.5541699483267726,1.3599421357156996
-2.215444061772978,1.079529384446336,0.2639355363772395,1.5497199619513709,1.3560482732833536
-2.215444061772978,1.066954302304292,0.27655154609663324,1.5365037239564632,1.344483695713011
-2.1966914014518335,-0.8769370669163193,-0.7260216767811729,1.8048590327961842,2.1541613891401896
-2.1966914014518335,1.2439812625761186,-0.7260216767811729,1.8706611663635522,1.2667859500231577
-2.1966914014518335,1.3483835328816844,-0.4396793852617591,1.8074585178601177,3.0570010046795972
-2.1966914014518335,1.3508825660931196,-0.4231442154246732,1.794305133534935,3.0347543480068757
-2.1966914014518335,1.0769329357088848,0.3048234478785376,1.5269493620331804,1.3361233620356425
-2.1966914014518335,1.0634798944739063,0.31739641596271506,1.5166091614502748,1.3270753975710192
-2.1774563861067815,1.2615323577719018,-0.7517453299354017,1.8743130938783668,1.2692589849850495
-2.1774563861067815,1.3825455799836268,-0.40888536164485256,1.8223920987486215,3.082258553513231
-2.1774563861067815,1.3843778926107992,-0.3918705092518566,1.8029210076994369,3.0493265972268793
-2.1774563861067815,1.0994836116671214,0.3204707280458899,1.5052224175348639,1.317111678445036
-2.1774563861067815,1.0572856360299878,0.35854526003443,1.4870256725772728,1.301189018103197
-2.1577448749098305,1.315044242434403,-0.7147995265890906,1.86646281185513,1.263942882235086
-2.1577448749098305,1.3967192838982547,-0.49776404820118336,1.83671676043241,3.1064862216595976
-2.1577448749098305,1.406824526027952,-0.44593006264130647,1.8292883066869388,3.0939222870858702
-2.1577448749098305,1.4135767812326676,-0.39373745142506095,1.803170687247154,3.0497488866574107
-2.1577448749098305,1.4162059947987724,-0.35881375726969394,1.803227952674827,3.0498457411457442
-2.1577448749098305,1.1217552768751247,0.33592441049640714,1.4876718354453502,1.3017544286696416
-2.1577448749098305,1.1076272977746182,0.34912816325550433,1.4836966515771715,1.2982760316993653
-2.1577448749098305,1.0785312546501726,0.37492472726584675,1.4764465498287809,1.29193199006706
-2.1577448749098305,1.0635720535628286,0.3875096806337982,1.4766606667163744,1.5955125811859312
-2.137562872178241,1.323281151404684,-0.7567507225194889,1.8778111809303693,1.2716278413066087
-2.137562872178241,1.3415595050155222,-0.7241660456615938,1.8744257879980444,1.2693352998891199
-2.137562872178241,1.425148459681218,-0.5020447165669064,1.8687468105060896,3.1606594678434705
-2.137562872178241,1.4289755339251162,-0.48441162307825625,1.8676834094485417,3.1588609103279444
-2.137562872178241,1.4324232309874014,-0.4667269523452184,1.8600766930207129,3.1459954755019677
-2.137562872178241,1.4354905006661496,-0.44899609128981355,1.8585923486268505,3.143484965712399
-2.137562872178241,1.445860966376752,-0.34194416104896597,1.8131686403232294,3.0666586814307313
-2.137562872178241,1.0995042448110417,0.3910940095647581,1.464647297954417,1.5825322930031684
-2.137562872178241,1.0841945007434068,0.4039738695279659,1.4488039733060976,1.5654137874629501
-2.137562872178241,1.052756699058424,0.42907263209608637,1.4498569409878863,1.5665515053027645
-2.1169165255455518,1.3490307179241272,-0.7667287895635471,1.8872222777911967,1.2780009063447724
-2.1169165255455518,1.3930471473745518,-0.6824839563118554,1.8950947427191864,1.1032271767712256
-2.1169165255455518,1.4747731976489995,-0.32424403287645936,1.8485041767284196,5.478707118808079
-2.1169165255455518,1.4747731976489995,-0.3059344061574199,1.848192270686787,5.477782673046905
-2.0958121240889533,1.4418902004547043,-0.637426396001972,1.8948002406028859,1.1030557327104114
-2.0958121240889533,1.5025055659517368,-0.2870292232665696,1.858681788748024,5.50887213337838
-2.0958121240889533,1.5017018932465065,-0.26833205624796364,1.859334722242438,5.510807336678968
-2.0958121240889533,1.0917616343813707,0.4624652108670495,1.4131723481534244,1.5269142814487426
-2.0958121240889533,1.0749198726542315,0.47522442067742754,1.4049520842479244,1.5180323935664994
-2.0958121240889533,1.0578065825297163,0.4877428932970624,1.3992281385751695,1.5118477449598466
-2.074256096413572,1.3994570398910815,-0.7862692047775894,1.897782826490501,2.332860637560476
-2.074256096413572,1.5294089214783453,-0.26734926008674287,1.8673174166158348,10.046388578859753
-2.074256096413572,1.0936563025393904,0.49183614725449293,1.3887043930402245,2.7237265948192495
-2.074256096413572,1.0584383951711833,0.5171496572966746,1.3701644347154083,2.687363364596013
-2.074256096413572,1.040426976881778,0.5294280589523747,1.3641521892070492,2.6755712848216775
-2.0522550086942557,1.3798191205421024,-0.8649610394816051,1.9260154083609662,2.36756570392685
-2.0522550086942557,1.4241184349924305,-0.7958256007478076,1.9114041267269761,2.349604700532545
-2.0522550086942557,1.434256670156052,-0.7781623673950022,1.911670807464794,2.349932519389038
-2.0522550086942557,1.551686302511486,-0.20806168744047965,1.8580111447546261,6.117314417250954
-2.0522550086942557,1.0578065825297163,0.546556421296287,1.3525284037904057,2.6527730466721806
-2.0522550086942557,1.0391635440550961,0.5588213858919651,1.3362532067285295,2.620851791655257
-2.029815562675453,1.3244207143489182,-0.9762322902062084,1.9480047570000598,4.762290647568456
-2.029815562675453,1.3384496323575323,-0.9599551618291785,1.9464795357607312,4.758561936528387
-2.029815562675453,1.3521267482510948,-0.9434816010391636,1.9491455314191126,4.76507950079241
-2.029815562675453,1.3910061648145193,-0.892932794240324,1.933244780154017,2.3764524514803003
-2.029815562675453,1.0749198726542313,0.5634223180310588,1.3322304613420999,2.612961805385959
-2.006944593629797,1.3163306851024204,-1.0212724485986377,1.9605877604382633,4.793052338153014
-2.006944593629797,1.3313283884176872,-1.0051031662997263,1.9690635488804933,4.813773113030048
-2.006944593629797,1.6022174924564072,-0.18376977772638411,1.891564457539784,9.383185479710983
-2.006944593629797,1.0328540745376997,0.617411110660863,1.2997178178216313,0.9308274593589232
-2.006944593629797,1.0126927352692068,0.6293114901905573,1.2947958780338447,0.9273024813637293
-1.983649068276016,1.3213690346764266,-1.0503974638733693,1.9619935426967845,4.796489056507118
-1.983649068276016,1.3369916345109216,-1.0341523085618451,1.9614290439426207,4.7951090254123
-1.983649068276016,1.570146938787348,-0.6702799901236679,1.9685220199031168,3.1341887378468853
-1.983649068276016,1.0070294891759721,0.6583606324526764,1.2623484456004939,0.9040643902330883
-1.9599360826568002,0.17061104709327699,0.886852984364732,1.5599576970929978,15.718402015698333
-1.9599360826568002,0.11898650710444071,0.8857547261730835,1.6649390935912052,15.718402015698333
-1.9599360826568002,1.6427476340831282,-0.11670398248142323,1.8868087763102102,9.35959472186946
-1.9599360826568002,1.6382636732187685,-0.09604430982240326,1.8847067327197427,9.349167445750375
-1.9599360826568002,0.3510080877486392,0.8791722002252222,1.4675055129570223,4.443591875702311
-1.9599360826568002,0.3253274424490752,0.8813650381959377,1.478587407363406,7.296439203849747
-1.9599360826568002,0.2738444017359705,0.8846568025215192,1.5090842610848985,7.446933140142875
-1.9599360826568002,0.22225131720864127,0.886486861125954,1.5320926720912322,7.560473585062705
-1.9358128599772826,0.17039158341060773,0.9072837508298661,1.5538003371740792,15.718402015698333
-1.9358128599772826,0.144134554253914,0.9069114041817057,1.66604335040449,15.718402015698333
-1.9358128599772826,0.11788952292454985,0.9061668243057808,1.5940806924034394,15.718402015698333
-1.9358128599772826,0.0916644839132989,0.9050502380083346,1.6622401601006933,15.718402015698333
-1.9358128599772826,1.6334633217076047,-0.6417666259490168,1.97857326832958,3.1501918657270997
-1.9358128599772826,1.6579807150258823,-0.07137796555370539,1.8800356717923845,9.3259964504963
-1.9358128599772826,0.30157677003870825,0.9035619854123697,1.4646186216708763,7.227506927645057
-1.9358128599772826,0.19665261224919148,0.9072837508298661,1.5283307488019844,7.541909485008254
-1.9112867484047782,0.1701761194098288,0.9273421706468399,1.5327236710574013,7.909219838927066
-1.9112867484047782,0.11681253106277222,0.9262069160169567,1.5572863274549742,8.035969006402512
-1.9112867484047782,0.06353021804700033,0.9235593332529372,1.7732655247668774,3.597159814637121
-1.9112867484047782,1.664164389187827,-0.6261810414468526,1.979272909763124,1.57183752806956
-1.9112867484047782,1.6766261418175494,-0.04616760937441851,1.8870792773197327,4.669134732311214
-1.9112867484047782,1.6706217579838587,-0.025038327324948824,1.8711054408684193,2.1300220659213127
-1.9112867484047782,0.3301043634986413,0.9216693549610117,1.4396220478077888,3.5434765142678146
-1.9112867484047782,0.30351397761279886,0.9235593332529372,1.4494567296339678,3.5676835373051663
-1.886365218830462,1.4160605336230858,-1.0834431871112418,1.9934320560172822,2.4307731269464994
-1.886365218830462,1.6876175842753864,-0.6311086983376841,2.0022771242613673,1.5901063011496852
-1.886365218830462,1.6941772370133328,-0.02044395622018956,1.8721734356949915,2.1312378459074104
-1.886365218830462,1.6876175842753864,0.0009302593038046916,1.8687510920474266,2.1273419310502057
-1.8610558625936626,1.4349039264126715,-1.0951899977520787,2.0034902302791506,2.443037974212346
-1.835366389169467,1.4533661361748629,-1.1066991821388594,2.010074891834381,2.4510672513126996
-1.835366389169467,1.7399006794461112,-0.6186525974680525,2.0483565274719067,1.6267002114083986
-1.835366389169467,1.7519928926121033,-0.574339618099183,2.0496584630735333,1.6277341422158538
-1.835366389169467,1.7259122587201619,0.03241729258736278,1.878291511073704,2.1382025178457176
-1.835366389169467,1.09011383534798,0.7565727982839179,1.1565637851521307,0.41314909663933397
-1.835366389169467,1.043525667253121,0.781624598214146,1.1251377872677875,0.20554701056457805
-1.809304623820339,1.4884928167289293,-1.099583958365577,2.010264724839519,2.451298731972452
-1.809304623820339,1.7797252609148406,-0.5554344352083324,2.0574976047919287,1.6339595884795046
-1.809304623820339,1.7230183224851021,0.10339480481151823,1.8541007288557638,2.110664304984664
-1.809304623820339,0.9829160679673707,0.8327979825199718,1.089266963321422,0.19899391039133776
-1.809304623820339,0.9078737945959133,0.8652140807753292,1.0768664987535979,0.1967285181430535
-1.809304623820339,0.3954166119424851,0.9924990150464651,1.2607679059712926,0.9355745288892047
-1.782878505212471,0.9178191188144547,0.8814196050393427,1.058983391190662,0.19346152334404984
-1.782878505212471,0.8920038666756083,0.8916487313044202,1.059064589303926,0.19347635710897523
-1.782878505212471,0.8132950283769061,0.920118702880691,1.0680976967356668,1.332817340289174
-1.782878505212471,0.42676849455583765,1.00720463678369,1.2011936707857382,0.8913664420925146
-1.7560960829975856,1.8326701815973634,-0.5153237055633714,2.066206822591479,1.640876004760422
-1.7560960829975856,1.7553425976852213,0.13711233102464002,1.8477795712978664,2.103468449109092
-1.7560960829975856,1.7453890033478794,0.15932979386148785,1.830134095688433,2.0833812580877646
-1.7560960829975856,0.6849381128819905,0.9768922721039611,1.0772665799392127,0.6604722273739587
-1.7560960829975856,0.4299889303219427,1.0247110109189228,1.184810364447045,0.8792089275834019
-1.7560960829975856,0.25625584432829235,1.0383016481906056,1.3892842818633677,1.6801339564832494
-1.7289655153609376,1.802722756263032,-0.704749290906566,2.1114362039606305,1.6767948710555767
-1.7289655153609376,1.818475196679303,-0.6586026672008847,2.1526700761589708,1.7095407078875124
-1.7289655153609376,1.857818228746837,-0.49416702755474934,2.0755139642637683,4.78873550534567
-1.7289655153609376,1.7653212310898143,0.16538423280654427,1.838671751102746,3.2652677197369546
-1.7289655153609376,1.7547587796670205,0.18773887351673493,1.8543752553779125,3.293155321515631
-1.7289655153609376,0.6631511839092793,1.0003811355373038,1.06745340979094,0.6544557719615992
-1.7289655153609376,0.6348191860818418,1.0069812889688778,1.0769590006896197,0.660283650511132
-1.7289655153609376,0.6063497187895093,1.0131787269163828,1.0875342290298302,0.6667673238626635
-1.7289655153609376,0.5490331033452021,1.0243580284067249,1.1127906115109445,0.6822520140065378
-1.7289655153609376,0.46224518034880396,1.0380634360418497,1.1648969365570527,0.864431825605702
-1.7014950665362478,1.5577226289807677,-1.14120207492291,2.1082026451264095,4.326180165743323
-1.7014950665362478,1.813909800535449,-0.7327210456652845,2.118550458361045,3.212406428961016
-1.7014950665362478,1.8226330558705113,-0.7095406975342947,2.118645879284555,2.7616965946943917
-1.7014950665362478,1.858712191429207,-0.5919791054564171,2.0982433308005244,2.735101471260898
-1.7014950665362478,1.8644052033041927,-0.5681849543709239,2.094181730496945,2.7298070953403735
-1.7014950665362478,1.8820421188681777,-0.4723102141558561,2.078263548352791,7.870665037647411
-1.7014950665362478,1.77407929619887,0.19392183665426593,1.8633035905346207,5.43142554901315
-1.7014950665362478,0.49505536724005705,1.0504931646346543,1.1325200275879723,1.3794461592606155
-1.673693104288341,1.7698101398432866,0.24526718481986698,1.8682733254937014,5.445912047920621
-1.673693104288341,1.7575309583231287,0.26767330575728154,1.8534028544261747,5.4025654580829165
-1.673693104288341,0.5283795168369954,1.0619850529876989,1.1251616132514703,1.370483371718258
-1.6455680973642415,1.5898467466583266,-1.160513773601836,2.125914217301205,6.572864089517485
-1.6455680973642415,1.82220337573886,-0.8128406939612008,2.1798363367219378,3.3053356055468615
-1.6455680973642415,1.913777140575007,-0.5251714629634081,2.0885117495209458,2.7224161635633797
-1.6455680973642415,1.7754733859365208,0.274316327081986,1.8715316491736018,5.455409878854812
-1.6171286129135112,0.47543459615447253,-1.732274221666539,2.0062413157274657,2.394481255734622
-1.6171286129135112,1.605268649404849,-1.16978478742036,2.142287375256991,6.623486330567363
-1.6171286129135112,1.829111049807629,-0.8417115700547187,2.1798363367219378,3.3053356055468615
-1.6171286129135112,0.5663293982545493,1.0877418233295058,1.0925274371941853,1.099459774715609
-1.6171286129135112,0.5361354636406135,1.0929558664703491,1.0895083845942384,1.3270565817821849
-1.5883833138786134,0.35482745091482903,-1.7604439035586297,2.0362730548996217,2.4303246191232186
-1.5883833138786134,0.38585048479486306,-1.757794885752987,2.024088226433732,2.4157818305079153
-1.5883833138786134,0.41681188748822856,-1.7547064058256057,2.009939019816643,2.3988945249965887
-1.5883833138786134,0.4477022278517351,-1.7511794045573899,1.9536278659332402,2.3316862577729083
-1.5883833138786134,1.8225858613439572,-0.8940886525806483,2.1798363367219378,3.3053356055468615
-1.5593409563560967,0.19927702173147488,-1.7817791382958517,2.019437483643671,3.9279705891648504
-1.5593409563560967,0.3251724793368493,-1.7773134997793576,2.026969863107341,3.9426216814810875
-1.5593409563560967,1.739111008992173,-1.0595189654686226,2.1798363367219378,6.573537777605289
-1.5593409563560967,1.7548659328937484,-1.037349392344169,2.1798363367219378,6.573537777605289
-1.5593409563560967,1.7992403592833737,-0.9695479735702738,2.1798363367219378,6.573537777605289
-1.5593409563560967,1.81305336739999,-0.9465395488217866,2.1798363367219378,6.573537777605289
-1.5593409563560967,1.8263700045062716,-0.923338778185996,2.1798363367219378,3.3053356055468615
-1.5593409563560967,0.6049853398473842,1.1111302461212567,1.0664605319031564,1.0732274689234447
-1.5593409563560967,0.574283087402055,1.116888817205784,1.0643306821469039,1.0710841047813031
-1.530010386929401,0.1994301878188315,-1.7960379920756722,1.9794754743018341,3.85024122212575
-1.530010386929401,0.23124152203837958,-1.7955868807332778,2.0097693470222477,3.9091652750075374
-1.530010386929401,0.29481089746800715,-1.793332011043874,2.0274174945895105,3.9434923612178885
-1.530010386929401,1.667618842730726,-1.1751132960798585,2.1798363367219378,6.73957954750108
-1.530010386929401,0.6090827176670257,1.1249956545883713,1.0452841124704804,1.0519166802456545
-1.440379173585826,0.6522983094237074,1.1575213315567303,1.0345601875080126,1.0566576999743182
-1.4099859372424828,0.6879503548882344,1.1626285403889869,1.0185079804312722,1.0402626285091416
-1.3173873258251896,0.7638819754750271,1.1803042220327467,1.0143676363674057,1.036033849470036
-1.2545666910738873,0.8039633580489465,1.191383263902056,0.9945014185313436,1.0157433025310454
-1.0942660521583598,0.8868284841104511,1.2131357279771056,0.9809815703479433,0.24013382433677724
-1.0290512456191898,0.9257454599585704,1.2157073600268242,0.9782158445856688,0.23945680417203943
-0.9303040051502195,1.0319351203709217,1.1973699860614597,0.950789853454895,0.2327432140949871
-0.8971816535621066,1.0342837196847505,1.2015568155396033,0.9495853457252053,0.23244836345118633
-0.8306875308291615,1.0708033507539176,1.1961930858840846,0.9423656006012308,0.3636690511002095
-0.7973360144382566,1.1048221365894964,1.186133848175567,0.9322793117012,0.3597766434072118
-0.763928400230189,1.1062300403708314,1.188427973373344,0.9274877601330731,0.3579275319679076
-0.6634708003688223,1.1729672578561345,1.1654084416993984,0.9053945097110959,0.519815823696655
-0.6299406820791003,-1.1635956361582365,0.9663176456619177,1.5910670080293432,1.8434907847664574
-0.6299406820791003,-1.5259218008641162,0.6393967699543314,1.6915988914280782,5.347707472785742
-0.6299406820791003,-1.8906491054497312,-0.3003835977797146,1.0515269583030178,7.4526811115359
-0.6299406820791003,-1.8906491054497312,-0.3297948412541646,1.0074351040735872,7.1401807741992505
-0.5964054562120471,-1.8900172928082646,-0.2709768337801027,1.0317370133547492,7.312420181704565
-0.5964054562120471,-1.8906491054497312,-0.3003835977797146,1.0191381921670635,7.223126230701523
-0.5964054562120471,1.204931758163039,1.1516006992619725,0.8974912960246214,0.515278337011877
-0.5964054562120471,1.173268744272532,1.1658595530417928,0.896178231681024,0.514524464952777
-0.5293605408087786,1.2353216943661063,1.135568346802404,0.8836604034460697,0.2880665264307309
-0.4958712738032737,1.2653345421916116,1.119121788169241,0.8675438325380449,0.28281264769932685
-0.46241773806095826,1.2640150125519969,1.1173724239943628,0.8639267055778616,0.2816334920021659
-0.4290101238528907,1.2623663543035877,1.1151867181263033,0.8575524679517001,0.2795555393356759
-0.3623733480832198,-1.4480748907417813,-1.3322128915079048,0.9025474124508818,3.406489965264479
-0.3623733480832198,1.3186263160662584,1.0781741656868105,0.8445142300562632,0.27530517359939416
-0.3291644847290407,-1.4866720783220668,-1.2829555051625205,0.9081182795573173,3.4275161214908456
-0.3291644847290407,1.3158453587010976,1.0747607292723895,0.8341088375982098,0.2719130953192648
-0.29604213314092787,-1.5025420062423713,-1.2565208546334297,0.9090517856442778,3.4310394589619575
-0.29604213314092787,1.3127194847016141,1.0709239310997885,0.8209215977578922,0.2676141560896751
-0.26301638270803834,-1.4973610076443935,-1.2536279895461238,0.9095810124667649,3.4330369228461604
-0.23009729339388174,-1.5496279663843127,-1.1779403579465089,0.9017265306547473,1.5110777919727187
-0.23009729339388174,-1.530828222009458,-1.2023827166614827,0.9067644741114518,3.422406445696929
-0.23009729339388174,-1.5115062699198953,-1.226554797181821,0.9088301989766779,3.4302031231094565
-0.1972948926719575,1.5516998793872656,0.8979377741714235,0.8602161753506711,0.29906674761498514
-0.16461917247128943,-1.5176113425000355,-1.1955420779043164,0.9157164495957812,1.8110187384440954
-0.16461917247128943,-1.4585613492373726,-1.2666655268267821,0.9291969493154824,1.837679215720382
-0.16461917247128943,1.5719438008602642,0.8735547482755401,0.8507730691240873,0.4456469360973005
-0.16461917247128943,1.3548088375314042,1.0189715615801833,0.7823508331127238,0.1336391762735777
-0.13208008613278746,-1.4715349985523165,-1.239207765600092,0.9350020028654107,1.849159910165952
-0.13208008613278746,-1.430828980934635,-1.2855707097176328,0.9468161247568296,1.8725247805175402
-0.13208008613278746,-1.409735213872605,-1.308312263354465,0.9396140640592265,1.8582812154002715
-0.13208008613278746,-1.3881561251991998,-1.3307512716305772,0.9364726112556007,1.852068342522631
-0.13208008613278746,-1.3660982881138715,-1.3528808994066759,0.9351253297415099,1.8494038145794491
-0.13208008613278746,1.5402807869697575,0.8878136020553606,0.8350567332934518,0.2903196992293944
-0.13208008613278746,1.3497228095759066,1.0131787269163826,0.7682565324454258,0.13123162373882066
-0.09968754537736371,-1.402301387474702,-1.3036780792662745,0.9462991291347093,1.8715023147097385
-0.06745141728672552,1.3665697443154439,0.9838049128340659,0.7450797492202492,0.12727262467115097
-0.035381521297768045,1.5200576694109782,0.8698837775647094,0.7805643625008962,0.27137462871137497
-0.035381521297768045,1.3878487670221735,0.9600107170375364,0.7444658002600264,0.1271677514738008
-0.003487626211477342,-1.5919853838126576,-1.0031059546988286,0.881546162855347,0.7550022288636289
-0.003487626211477342,-1.5769349826862578,-1.0281755136846629,0.8904479469101428,0.7626261821917961
-0.003487626211477342,-0.6322356678787682,-1.769334156225801,0.7095648433433042,0.12673133656224367
-0.003487626211477342,-0.6008713190035506,-1.780679033628221,0.7039362495445723,0.12572604547183638
-0.003487626211477342,1.5124995240573549,0.863182722731229,0.7642761340915515,0.26571178763214626
-0.003487626211477342,1.381038266641527,0.9527999918867843,0.7248855435081566,0.12382310189615019
0.02822055278274004,-1.762824604828416,-0.46734629760586394,0.7396334434268891,0.795527594440428
0.02822055278274004,-1.759257378646343,-0.49491972953292057,0.7553338649581891,0.8124144979241672
0.02822055278274004,-1.7550983630156083,-0.5224383833445689,0.7452633708498145,0.27590226588270234
0.02822055278274004,-1.7503488248126617,-0.5498938765922788,0.7482004182578352,0.2769895835566595
0.02822055278274004,-1.7450102107928502,-0.5772778460668399,0.7653898927074085,0.2833532599903504
0.02822055278274004,-1.6357687217530557,-0.8972997445506204,0.843127324663207,0.36308870376322844
0.02822055278274004,-1.6096501634736955,-0.9485274943369572,0.8570925725262608,0.7340588954568139
0.02822055278274004,1.529495350348882,0.8372141361024757,0.7640804690521751,0.2656437618165141
0.05973335706639858,-1.750499313537287,-0.4663821256851989,0.7365476085333895,0.7922085627883538
0.05973335706639858,-1.7469546769081112,-0.4937809481349548,0.7378028589376403,0.7935586725533846
0.05973335706639858,-1.6695179340253343,-0.7897545344880095,0.8074939774709592,0.34774337517012827
0.05973335706639858,-1.659038941767555,-0.8159558969225742,0.8152594869492155,0.35108755426152144
0.05973335706639858,-1.6364005343945223,-0.867892980551008,0.8364955179258536,0.3602327482729518
0.05973335706639858,-1.6242480151574576,-0.8936128812060784,0.8398196414089082,0.36166426597058254
0.05973335706639858,-1.6115448316317147,-0.9191565579495138,0.8545039739185467,0.3679880027308431
0.05973335706639858,-1.5982948533300543,-0.9445162299299308,0.8531262510820784,0.7306619303778122
0.05973335706639858,-0.5600189697205291,-1.7734367805474782,0.7020266703282332,0.12538498640073328
0.09104118753404215,-0.5550539800187914,1.1335202370052284,0.9541650268921663,0.17391859231319168
0.09104118753404215,-1.684995393480649,-0.7076759462857695,0.7850125754280532,0.2906177289513699
0.09104118753404215,-1.646735254741143,-0.812611363575606,0.813395002996523,0.3502846232666794
0.09104118753404215,-1.6357687217530557,-0.8384862165513959,0.8208966660640115,0.35351517817762473
0.09104118753404215,-1.6121766442731815,-0.8897497939499015,0.8437071397864779,0.3633383983412269
0.09104118753404215,-0.5550539800187911,-1.7636986760391078,0.7065439771515443,0.12619179685188603
0.09104118753404215,-0.523822447733079,-1.7739500775224204,0.6946131789509288,0.12406090491663432
0.09104118753404215,1.411148165240972,0.8947900223600569,0.7111913848549909,0.24725609735677642
0.09104118753404215,1.38497055325344,0.9120118654981038,0.7039446683710476,0.24473667027339563
0.1221345075172243,-1.644209928386061,-0.7832717644120558,0.8047213673847071,0.15791143465335325
0.1221345075172243,-1.6229845823307756,-0.834808310792038,0.822565082707773,0.16141292821424724
0.1221345075172243,-0.5188519442859503,-1.7636986760391078,0.6954833793915888,0.0566013975322489
0.1221345075172243,1.4782436167127158,0.8328114209439456,0.7246860592301171,0.11480449774131493
0.1221345075172243,1.4025216484492224,0.8862882123438751,0.7001883013937941,0.11092357199648233
0.1221345075172243,0.20024589454524094,1.2417970085178658,0.9121546874459632,0.5747202342940103
0.15300384568947048,0.1669217449483022,1.2303051201648212,0.9070826744790993,1.198184172244135
0.15300384568947048,-1.7100046233957984,-0.4632143430950579,0.7188707051554865,0.3523205436675649
0.15300384568947048,-1.7065342046429703,-0.4900394868777508,0.718043142485863,0.35191495288804137
0.15300384568947048,-1.6869084345578378,-0.5967256929553616,0.7347711155362007,0.12394985960019131
0.15300384568947048,-1.6404257852237463,-0.7540216388067085,0.7917926753488314,0.15537442197999576
0.15300384568947048,-1.6307188382817632,-0.77981595535042,0.8004024229840921,0.15706392303736913
0.15300384568947048,-1.6204592559756938,-0.8054687116284878,0.8097557848955719,0.15889934441194245
0.15300384568947048,-0.5136674909015431,-1.753006014082344,0.69785296380458,0.05679424439720675
0.15300384568947048,1.3935238125856402,0.8774204511239438,0.6900372411841227,0.10931544478874881
0.15300384568947048,0.20012245071149704,1.2303051201648212,0.907614160848066,0.5718593900248565
0.18363979895133553,0.16705024541034508,1.2183424897253383,0.9046931149921709,1.1950277539413412
0.18363979895133553,-1.687888777851303,-0.5152498430570376,0.7201445088254643,0.12148247103538644
0.18363979895133553,-1.678150369448782,-0.5681880891076401,0.7323689474676107,0.12354463355286568
0.18363979895133553,-1.6724297551378733,-0.5945455936994547,0.7301984532639382,0.12317848898604793
0.18363979895133553,-1.6439138938783373,-0.6990444769339281,0.7760265075439133,0.13090930579912796
0.18363979895133553,-1.6353874356497398,-0.7248966235319767,0.7846016399111485,0.15396331651090894
0.18363979895133553,-1.5726961483706048,-0.8771152222802119,0.8365794844543258,0.1641629910003254
0.18363979895133553,-1.5603552193263268,-0.9019304744240457,0.8462362519602459,0.16605795001692222
0.18363979895133553,-1.5474830883579243,-0.9265669690367762,0.8472444869026304,0.1662557971633662
0.18363979895133553,-0.5082706668145811,-1.7418753487405425,0.7015706816857636,0.05709680810173367
0.18363979895133553,1.4342566701560517,0.8334269635363225,0.691692134720465,0.10957761241131485
0.18363979895133553,1.4093937405059451,0.850985800594853,0.6857867635795617,0.10864208569712949
0.21403303529467868,0.10185530803018783,1.2045229664490897,0.8894993057855524,1.1749579386756905
0.21403303529467868,0.06922342132591501,1.2031335951105693,0.8877348815453776,1.1726272743854536
0.21403303529467868,-1.6443568709408307,-0.6443068366058812,0.7430885076426518,0.1253529354180017
0.21403303529467868,-1.637006219809568,-0.6701736008404102,0.755073505532974,0.12737470624486655
0.21403303529467868,-0.5026631159499615,-1.730310070522192,0.705959354631149,0.05745397698510523
0.21403303529467868,-0.47215681742127746,-1.7398237241073349,0.6983050806635567,0.30366055306248607
0.21403303529467868,1.448401932431554,0.8063537711720199,0.685527042684839,0.108600940808951
0.21403303529467868,1.4241184349924305,0.8241172927151486,0.6816240704613893,0.10798263339140876
0.24417429664528384,0.13492751333133932,1.1925603360096069,0.8853951114205619,1.1695366238757259
0.24417429664528384,0.1025475709228533,1.1916417067575247,0.8870296815611691,1.1716957612134808
0.24417429664528384,0.005595149856700409,1.1861338481755672,0.8808586290321653,0.4574030956042645
0.24417429664528384,-1.6137359997950687,-0.6927039204692321,0.7576629081054357,0.12781151721704348
0.24417429664528384,-1.605350345706532,-0.7181291501490406,0.7667628651332086,0.15046279243908334
0.24417429664528384,-1.5964197837424972,-0.7434316099616431,0.7758834858447774,0.1522525427301359
0.24417429664528384,-1.5869470342386516,-0.7686035925326701,0.7867737670064987,0.15438955560406356
0.24417429664528384,-1.5769349826862578,-0.7936374302323843,0.7951931473648914,0.1560417006634235
0.24417429664528384,-0.46659883989277745,-1.7277467117520442,0.704137205661664,0.3061966742385945
0.24417429664528384,1.4613755817464973,0.7788960099453299,0.6837455518042682,0.10831871768188828
0.24417429664528384,1.4376799562730316,0.7968476626229057,0.6747191713712084,0.10688876182881123
0.24417429664528384,1.4136023021665836,0.8144606085546073,0.6689340045048529,0.10597227783138594
0.24417429664528384,1.3891499537138403,0.8317294826664834,0.6677099717781227,0.10577836701908117
0.24417429664528384,0.4899145670723674,1.1723935524581446,0.8126957073487961,0.314200170872074
0.24417429664528384,0.4258294135075194,1.1801745746195682,0.8342639133403588,0.3225387580538132
0.24417429664528384,0.36144904580309883,1.1861338481755672,0.8600464443996221,0.3325066655880637
0.24417429664528384,0.3291726569472368,1.1884279733733443,0.8704939205952308,0.5484710837772685
0.24417429664528384,0.29685190152011826,1.190264112669269,0.8736515352520432,0.5504605983413544
0.24417429664528384,0.1997219375387885,1.1930197206021464,0.8771147758347347,0.5526426782741717
0.27405440168295875,-0.05663988855269761,1.1669358772555334,0.8833770543181744,0.4587108372598514
0.27405440168295875,-0.15178260268481625,1.1546934242856377,0.8858513847610225,0.45874419383686793
0.27405440168295875,-0.18330542035823913,1.1497153921919339,0.890845213871235,0.5161258109408479
0.27405440168295875,1.3784756216125171,0.8215758323278897,0.659778995349288,0.10452194466361613
0.27405440168295875,0.6752280010283404,1.1253585263017332,0.7769939178283759,0.2776692671868724
0.27405440168295875,0.6442093982210917,1.1321108783616536,0.7849013543130053,0.28049509637759557
0.27405440168295875,0.6130504655993665,1.138422399252418,0.7856897008195353,0.2807768226456329
0.30366424863825375,-0.17991686855111408,1.136184329041035,0.8858498900851157,0.5132316880338845
0.30366424863825375,-0.2110377886609761,1.1308102093010832,0.8912527352862493,0.5163619151680748
0.30366424863825375,-0.2729096254661752,1.1187424360725913,0.8985919909827778,0.5206140335373388
0.30366424863825375,-0.30364169540065544,1.1120524585446798,0.8996273486809038,0.39924217969890685
0.30366424863825375,-0.3646513347538628,1.0973705102005933,0.9048450287520808,0.40155771397834217
0.30366424863825375,-0.424993109219111,1.0809676972485882,0.9036671411725076,0.40103498375521335
0.30366424863825375,-0.4845935016391511,1.0628640039895871,0.9049571170722343,0.40160745722516816
0.30366424863825375,-0.5140929500286179,1.05318113969045,0.9057726643957538,0.07522985073806752
0.30366424863825375,-0.5724454248148749,1.0325681223257859,0.8984338921514441,0.07462032170032781
0.30366424863825375,-0.601280676482572,1.021644248185031,0.898589954818237,0.07463328364054761
0.30366424863825375,-1.6393644601373907,-0.302165175373933,0.655932153778718,0.5633476768029952
0.30366424863825375,-0.4548905387659054,-1.702305569422191,0.7094760376850805,0.30851828513593726
0.30366424863825375,1.6297703062654665,0.5864896009135152,0.7401498978784146,0.3454435684688371
0.30366424863825375,1.6101823099610684,0.6068581724430693,0.7446021183662597,0.3475215136760711
0.30366424863825375,1.5697086928583595,0.6467466942626768,0.7137921262430749,0.3331418405125167
0.30366424863825375,1.5488354007158944,0.6662544941225754,0.701604370151419,0.21733668839263348
0.30366424863825375,1.4150933004444681,0.7768223241131622,0.6586864989883983,0.10434887179378695
0.30366424863825375,0.7920373048789101,1.0809676972485882,0.7426343064802434,0.26539039616233884
0.30366424863825375,0.7619545157052284,1.0893830116481114,0.7538457576607035,0.26939695961405863
0.30366424863825375,0.7012695661842545,1.1049277598365987,0.7647482603911563,0.2732931161658741
0.33299481806494935,-0.08333363486236958,1.1355456125178158,0.8909762428449594,0.5176099610757227
0.33299481806494935,-0.2989511906220901,1.0983116696074573,0.89798188601607,0.3985119461173193
0.33299481806494935,-0.35937341767392933,1.0837710818279764,0.9020269042431623,0.40030706928278775
0.33299481806494935,-0.4487437816294778,1.0587707500321566,0.896287054823759,0.39775980346577355
0.33299481806494935,-0.4781607587804046,1.04959681075949,0.9012291633270711,0.3999530428932586
0.33299481806494935,-0.5651668270892688,1.0195926235518231,0.8951967832635314,0.0743514603976708
0.33299481806494935,-0.5937244475216035,1.0087739265292568,0.8940049368863393,0.07425247040980375
0.33299481806494935,-0.6220453111268686,0.997551967967854,0.8868313892845157,0.07365666426929972
0.33299481806494935,-0.7327897978893088,0.9487017051145222,0.8751216841143165,0.12005382501426923
0.33299481806494935,-0.75979900907627,0.9355171331450393,0.8763115064497307,0.2446776795419793
0.33299481806494935,-0.8129472574688528,0.9080092809647565,0.8690758346460443,0.2426573849620007
0.33299481806494935,-0.8648814614463413,0.8790112716655176,0.8599016646373402,0.2400958362285514
0.33299481806494935,-0.8903734638092581,0.8639644288417052,0.8580723498058174,0.23958506750665917
0.33299481806494935,-0.9155383471810401,0.8485584348548533,0.8533917057568474,0.23827817022614328
0.33299481806494935,-0.41913421016677,-1.6977046372830975,0.7155853495158638,0.3111749420338135
0.33299481806494935,-0.3893410637545838,-1.706038927450211,0.7092031764906543,0.30839963043399804
0.33299481806494935,1.4931160389284162,0.6945519412401128,0.6707741379832928,0.20778637649769693
0.33299481806494935,1.4712274594000683,0.7129664776212039,0.6634106364738137,0.20550537726062118
0.33299481806494935,1.4032355008885942,0.7663091940646329,0.6505008222452229,0.10305209990863246
0.33299481806494935,1.3319003927205748,0.8166878726235173,0.646425094265199,0.1024064245879647
0.33299481806494935,0.9034253444174898,1.030004763555638,0.7090648506489786,0.03709726998092812
0.33299481806494935,0.8452049544402038,1.04959681075949,0.7277164750759036,0.038073096587359426
0.3620371755874662,-0.6693049472349495,0.9609880171508023,0.8714429447562037,0.07237856168300869
0.3620371755874662,-0.7236024870888196,0.9360304301199815,0.866361389488033,0.2418994762302108
0.3620371755874662,-0.750340893085092,0.9229780519602931,0.868296765560908,0.2424398586433901
0.3620371755874662,-1.000780370835037,0.7724241354244589,0.8156971387578451,0.23309619348695937
0.3620371755874662,-1.0239619691547206,0.755466659583585,0.8095874202450104,0.45237829311430267
0.3620371755874662,-1.0692147824616787,0.7205786675725386,0.8045292482710406,0.44955190630709346
0.3620371755874662,-1.0912722130036465,0.7026587786227003,0.7963880654452826,0.44500280598938696
0.3620371755874662,-1.1129413288493253,0.684428873773482,0.7923416268275784,0.44274175184094794
0.3620371755874662,-1.1956044490491962,0.6085215362840765,0.7768194664990443,0.29758827128368415
0.3620371755874662,-1.2152354173605637,0.5888266759070401,0.7711603069646793,0.2954203293417292
0.3620371755874662,-1.2344403105827355,0.5688564739918284,0.7643902113297563,0.2928268038917279
0.3620371755874662,1.5221325299162434,0.6470613211417112,0.6752134489613252,0.2091615463052942
0.3620371755874662,1.4583164086634457,0.7026587786227003,0.651575362718073,0.20183915265637908
0.3620371755874662,1.4362589781214778,0.7205786675725386,0.6446388453718911,0.19969042073118892
0.3620371755874662,1.413819951790238,0.7381830820512297,0.6432015714834936,0.1992451949593624
0.3620371755874662,1.0088065485937814,0.9728856236991561,0.6865403170090062,0.0359188182428794
0.3620371755874662,0.9247043671242191,1.0062105677591087,0.7026703567890291,0.03676271910748289
0.39078247462236376,-0.8182558972227396,0.8690903655580878,0.8514035951633719,0.23772306364234963
0.39078247462236376,-0.8685150088915451,0.8399655485605776,0.8457645333785859,0.23614856354490685
0.39078247462236376,-1.2740739296970705,0.4987748608698854,0.7278977663652062,0.7636593708992114
0.39078247462236376,-1.2913353674916386,0.47798412201494056,0.7249020971853027,0.7605165245448796
0.39078247462236376,-1.3404037994418665,0.41418813674011395,0.706074173352971,0.7407635851438775
0.39078247462236376,1.400984798219112,0.7271947578016804,0.6380429701080241,0.19764720984498774
0.39078247462236376,1.3784090173964805,0.7442980234110551,0.635517217728929,0.19686480500099585
0.39078247462236376,1.0544501607611687,0.9355171331450393,0.6738058668504612,0.07174953054173744
0.39078247462236376,1.0001967207936928,0.9594487515992729,0.6863919631441991,0.03591105657852609
0.4192219590730942,-0.8571034011562436,0.8274364924637185,0.8347944327731364,0.2330855674062873
0.4192219590730942,-0.8814886582064895,0.8125077873338876,0.8259642143387949,0.23062005446886533
0.4192219590730942,-0.905549502663455,0.7972356052324924,0.8138786109367017,0.2272455953016349
0.4192219590730942,-0.9292786053608366,0.7816245982141462,0.8087778941841713,0.23111892827994307
0.4192219590730942,-1.3238735416722256,0.406277553485329,0.6967999982338463,0.7310337699633117
0.4192219590730942,-1.3955251122373358,-0.9269767600658927,0.8556879160588058,0.3781887087805613
0.4192219590730942,1.3654478958476122,0.732806687621815,0.6307320007645523,0.1953824835495865
0.4192219590730942,1.2963228010206358,0.7816245982141462,0.6322817111244494,0.10016583505660036
0.4192219590730942,1.199445355158041,0.842017173193785,0.6422508617165942,0.10174514420993847
0.4192219590730942,1.1491201104517204,0.8701168031527408,0.6505609856274985,0.06927432307131012
0.4192219590730942,1.123512436960451,0.8836271929621372,0.6555020130770005,0.06980046334009807
0.44734696599719354,-0.9398630562624811,0.7534984862007427,0.8078792107172154,0.45142378605164135
0.44734696599719354,1.3296915672484764,0.7374076197609087,0.6266793956578895,0.1941271040070461
0.44734696599719354,1.2365294222660705,0.7997989640026401,0.63504580984717,0.10060372255495574
0.44734696599719354,1.2124190044729846,0.8145594119670951,0.6384436295386311,0.10114200389502755
0.44734696599719354,1.187995174714988,0.8289757580152479,0.6423608925832631,0.10176257525918128
0.47514892824510035,-0.9932262386987925,0.6923387173784509,0.7855168821244428,0.2553046549797714
0.47514892824510035,-1.0146885917571284,0.6755005465349625,0.7820464471665974,0.25417671206765186
0.47514892824510035,1.2709035347290651,0.756572798283918,0.6304704145644221,0.11359799740849223
0.47514892824510035,1.224205234434118,0.7867505349305285,0.63499275105678,0.058511733828581776
0.50261937706979,-1.041449204325323,0.6293114901905572,0.7609794206573186,0.2473296155165824
0.50261937706979,-1.0812720570437713,0.5940045323051806,0.7484640205578199,0.24326192457696208
0.5297499447064383,-1.0653344043977904,0.5825490552353806,0.7456259675545794,0.24233951519366917
0.5297499447064383,-1.1031339106552376,0.5465933658426889,0.7288335152691233,0.6487317204847047
0.5565323669213236,-1.1393658247605107,0.4801766054773132,0.7009502907972415,0.6239129768274155
0.9511102478156342,0.4851221087757719,-1.2625335380176197,0.7817907325545104,0.29698771535562174
0.9703452631606859,0.517215412403246,-1.230304071454376,0.7852242739942887,0.29829205369747797
0.9890979234818309,0.52779986330489,-1.2021779594409725,0.7954639194501708,0.3021819039903527
1.0073625165370734,0.3482610445955926,-1.2106144981386082,0.8347345648707879,0.3171000896100531
1.0073625165370734,0.5555619428781626,-1.168623844412799,0.8193157718693299,0.25715052271198063
1.0251334787544364,-0.05106251757604565,-1.1747451882004043,0.8952216046937906,0.45676514632021475
1.0251334787544364,0.004637888788704773,-1.1835413057743056,0.9139465806096725,0.46631911186261893
1.0251334787544364,0.023321230565670772,-1.185945377753032,0.9096415601834001,0.4641225794346616
1.0251334787544364,0.04205337107870612,-1.1880841785097864,0.8814015676747585,0.4497138070785662
1.0251334787544364,0.13624592216518716,-1.1947791500524647,0.9107494382950755,1.182075279155677
1.0251334787544364,0.24968858143846195,-1.1939748553859972,0.8836164761338848,0.5470428110452175
1.0251334787544364,0.26855873443043554,-1.1929028436408884,0.8660745702877226,0.5361826995099938
1.0251334787544364,0.545313325731528,-1.1451114445761115,0.8341456599136615,0.26180503272300976
1.0424053969266776,-0.5140853692717373,-0.9556835415359644,0.8983781040388789,0.06391788700425073
1.0424053969266776,0.2110812316874981,-1.1701128057837666,0.8957426078252948,0.5545500422328893
1.0424053969266776,0.22944465996546295,-1.1695918294901142,0.8944120238906126,0.5537262839671482
1.0424053969266776,0.2477940997861395,-1.1688105634237111,0.8929774264757416,0.552838131444254
1.0424053969266776,0.5349545034721243,-1.1213462119290651,0.86378414288824,0.3200512694415611
1.0424053969266776,0.5693751868712634,-1.1108908865743001,0.8462366434551271,0.2590563742539258
1.0591730098602041,-0.5931934761579888,-0.85403032350169,0.8999062706350527,0.0321941473943683
1.0591730098602041,-0.4933101922477413,-0.9366062508415214,0.909902466661277,0.06473782340361628
1.0591730098602041,-0.479855672011826,-0.9461081772776976,0.909722808934577,0.3458399128099487
1.0591730098602041,0.17460839076396847,-1.1449024496044797,0.9242198303081846,1.1995587018509908
1.0591730098602041,0.21026050382617176,-1.1446496804560136,0.916683425509548,0.5675144041262995
1.0591730098602041,0.22807705797902553,-1.144144219155013,0.9141603767341346,0.5659523964772962
1.0591730098602041,0.5244886314975598,-1.097335385591743,0.8975302246012592,0.3325549445551341
1.0754312099776855,-0.4460581600522935,-0.9355681302601813,0.9199110171139283,0.3497130585570174
1.0754312099776855,-0.4326331374469922,-0.9444002435004321,0.9211365118196116,0.3501789422064104
1.0754312099776855,0.10586451398750707,-1.1167305806825616,0.9519292422052646,1.2050838061195992
1.0754312099776855,0.1230972097604691,-1.1177095686259222,0.9530975667230072,1.2065628330201301
1.0754312099776855,0.14034831153968613,-1.1184440706357863,0.9531721550223575,1.206657257214375
1.0754312099776855,0.157612564472441,-1.1189338629757262,0.9382435828146765,1.1877586040179589
1.0754312099776855,0.17488470970004788,-1.1191787964502506,0.952956178198878,1.206383843854502
1.0754312099776855,0.5139188978138232,-1.073086279494446,0.9345780974932244,0.3462820068620847
1.0911750448738686,-0.3862102410969429,-0.9406109339137,0.9320031647583816,0.354310005281856
1.0911750448738686,-0.3589923406440879,-0.9563835240655048,0.9454450804462526,0.35942007936578096
1.0911750448738686,-0.3451334220762738,-0.9639779888808057,0.9460389143583214,0.3596458310632832
1.1063997188241306,-0.3273293267535807,-0.942124670285684,0.946703188012761,0.35989836110922363
1.1063997188241306,-0.30008226866685467,-0.95622688567124,0.952522204961071,0.36211051660788585
1.1063997188241306,-0.28623568729597204,-0.9629861074549491,0.9580298708576462,0.4754716622883357
1.1063997188241306,-0.25811750762848634,-0.9759104852092296,0.9761453205782918,0.4844623871642366
1.1063997188241306,-0.17067481556895883,-1.0097949019905401,0.9858778628938053,0.4892926625176621
1.1063997188241306,-0.032545858951022424,-1.0462569588113655,0.985499190358743,0.4904390405092281
1.1063997188241306,0.046715450962929304,-1.0587737759508857,1.0105349313729233,0.5028982134051109
1.1211005942453012,-0.20093366467118237,-0.9699223844943354,0.9882234373891984,0.4904567746589119
1.1211005942453012,-0.18680797726325105,-0.9752737243464772,1.0129090263485403,0.5027082694964975
1.135273193108317,-0.002661485072081845,-0.9973753448691507,1.0001043934511533,0.4977073993888294
1.135273193108317,0.012023749305879931,-0.9999112662904268,1.0129039465324445,0.5040771667042654
1.148913198302271,-0.10614732344661476,-0.9445162299299308,0.9832846521301452,0.4880056481249295
1.148913198302271,-0.09258184773696249,-0.9485274943369572,0.9888341508780659,0.4920987017785971
1.148913198302271,-0.023576423659931723,-0.9656671718852702,0.9946194996745426,0.4949778121223836
1.1745789716709374,0.018975139957075268,-0.9180860282347508,1.1049929708143975,0.2765060743574939
-2.464742051288802,-0.34217197710810154,-0.1721888547596618,2.1798363367219378,15.718402015698333
-2.464742051288802,-0.34516169849200706,-0.1796642657181845,2.1798363367219378,15.718402015698333
-2.464742051288802,-0.34799037767007807,-0.18718092842952525,2.1798363367219378,15.718402015698333
-2.4554984903040817,-0.384192413402919,-0.18718092842952525,2.1798363367219378,15.718402015698333
-2.4456937391490694,-0.41755474246690716,-0.17966426571818458,2.1614709828551923,15.718402015698333
-2.4353307844459477,-0.4475675902924125,-0.1632177070850218,2.1617060531195524,15.718402015698333
-2.4353307844459477,-0.45073397770257934,-0.17218885475966192,2.158007116099726,15.718402015698333
-2.4244127828511073,-0.4950025643931367,-0.2029368034729862,2.1411887349734893,6.112428661867176
-2.4244127828511073,-0.4973084811808887,-0.21257446691778317,2.1353454414241764,6.095747874047241
-2.4244127828511073,-0.5088768414799852,-0.3101801951911525,2.1012324211130218,9.801945481686946
-2.4129430600935993,-0.5329605266454153,-0.21768167575003983,2.12857009743431,9.929471789678777
-2.4129430600935993,-0.536708447148666,-0.23805547088968612,2.1182782911144447,9.881462001022474
-2.4129430600935993,-0.5382535923458811,-0.24827911983600745,2.114689589299974,9.86472122585547
-2.4129430600935993,-0.5415683210495882,-0.2790596857612874,2.1140380765882267,9.861682013240529
-2.4129430600935993,-0.5422318730895923,-0.28934599614985296,2.1229629565561017,9.903315288073289
-2.4129430600935993,-0.5422318730895923,-0.3408324428840265,2.0850747409813093,5.550465544443474
-2.4129430600935993,-0.5415683210495881,-0.351118753272592,2.0763887146585684,5.527343356602951
-2.4009251099620847,0.9161165462492884,-0.48014560279304513,1.7282119531703233,2.8979426830363924
-2.4009251099620847,0.9227606753586638,-0.45927377869622016,1.6711893993229896,2.8023247280819708
-2.3883625932405947,0.9405934914722078,-0.5090167792788473,1.741931895671942,1.0053811549801146
-2.3883625932405947,0.9446441397092218,-0.4982529723416873,1.734916298165147,2.90918482696825
-2.3883625932405947,0.9520487374975012,-0.4765612738620851,1.7279926458086792,2.8975749386964393
-2.3883625932405947,0.9585170039577994,-0.45467284655712653,1.7272138675275603,2.8962690486305056
-2.3752593365934187,-0.5912339624496098,-0.5504223355642796,1.991893959192186,1.8250752706816273
-2.3752593365934187,0.9172014217456009,-0.6253760546839837,1.8499700731992996,1.0677369497010682
-2.3752593365934187,0.9531047305362428,-0.5613715091991759,1.7587088756426028,1.0150642313058251
-2.3752593365934187,0.958278158109409,-0.5504223355642796,1.754070021225023,1.0123868494726325
-2.3752593365934187,0.9679155146633499,-0.5283122911140984,1.7385744811682142,1.0034433747030027
-2.3752593365934187,0.9878050660966365,-0.47196034172299145,1.7276347299531762,2.8969747694679517
-2.3616193313994644,-0.6112085820259172,-0.5825281872077982,1.982537080643449,1.8165020192937882
-2.3616193313994644,0.9723866096387612,-0.5937556846471065,1.7835128472442567,1.0293802017975107
-2.3616193313994644,0.9782527776857164,-0.5825281872077982,1.7677282380372137,1.0202698865923547
-2.3616193313994644,0.9838768630688586,-0.5712192252681919,1.763843895527767,1.0180279822055134
-2.3616193313994644,0.9892571526372981,-0.5598322436476465,1.7541636387526431,1.01244088218096
-2.3616193313994644,0.9943920075027126,-0.548370710931072,1.7589829878598005,1.015222439131404
-2.3616193313994644,0.9992798635385676,-0.5368381184123644,1.7479126131129372,1.0088330124398563
-2.3616193313994644,1.0233419684681369,-0.4663484119028568,1.7292053157376681,2.8996083975793088
-2.3474467325364485,-0.6354324721472581,-0.6043850006066914,1.9716629117912945,2.200836391117536
-2.3474467325364485,-0.6225061701743073,-0.6274286172104553,1.9913103023792562,2.222767468655127
-2.3474467325364485,1.0352120547867805,-0.5332537894814042,1.7491596177248423,1.2298992504550872
-2.3474467325364485,1.0397689518662385,-0.5211447250734927,1.7450351032516809,1.22699915076857
-2.3474467325364485,1.0440650278593075,-0.508972894162484,1.7417950472395918,1.2247209467554425
-2.3474467325364485,1.0553756426670826,-0.4721179678015565,1.7333234221699567,3.5408939345085884
-2.3474467325364485,1.0586161483705026,-0.4597323216737151,1.7273775792892923,3.528747557945276
-2.3474467325364485,1.0615900919489012,-0.4473026158557676,1.7107303963843206,3.4947401083135876
-2.3474467325364485,1.0642965675102558,-0.4348326365565152,1.7227452296079375,3.519284431399224
-2.332745857115278,-0.6298768696226587,-0.6738858921668544,1.962304742210986,2.1903904877922646
-2.332745857115278,1.0796019302308073,-0.5033609643423492,1.7438632650166541,1.2261751876766314
-2.332745857115278,1.0905023232211486,-0.4650027440282741,1.7289612421621192,3.5319827200558067
-2.332745857115278,1.096389722213871,-0.43919577847318003,1.7321594520272596,3.538516135440331
-2.332745857115278,1.1011649326227595,-0.413237608193148,1.7142946228306364,3.5020212352190208
-2.3175211831650158,-0.6660733916101089,-0.6743991891417963,1.9564281988229486,2.183830892607395
-2.3175211831650158,-0.6582252935576868,-0.686390604601654,1.969191255325717,2.1980774451216183
-2.3175211831650158,1.133146443717026,-0.41665825690560815,1.737218083384026,3.548850085157381
-2.3175211831650158,1.1369311078510533,-0.3896716512549292,1.7328521763755222,3.5399312570568022
-2.3017773482688324,1.1624345058558636,-0.4339457520714729,1.741751738072568,3.5581115941074635
-2.3017773482688324,1.1669439556765588,-0.40611820988809194,1.7377391582744115,5.281321673660588
-2.3017773482688324,1.1714602849245879,-0.3641795830545415,1.7362061252769851,5.276662493163219
-2.2855191481513515,-0.7306073117213464,-0.6853641670070011,1.8939678294096989,3.4919197588894373
-2.2855191481513515,1.1984046330702578,-0.4090303209792687,1.7445597911468422,5.3020508815199685
-2.2855191481513515,1.2030654443392448,-0.36575003430908004,1.7416578728323193,5.293231396721739
-2.2855191481513515,1.203998459105175,-0.3512865425241541,1.7478433135351816,5.312030134086678
-2.2687515352178247,-0.7586662571716137,-0.6967296525112083,1.878123333380536,3.4627071672631473
-2.2687515352178247,-0.7503243535284604,-0.7100305112756992,1.8891714181912949,3.4830765869805878
-2.2687515352178247,1.2330782921647503,-0.3821965929422428,1.7416150615236308,5.293101284966257
-2.2687515352178247,1.2353216943661065,-0.352397609186153,1.7399835394420424,5.288142777304437
-2.2687515352178247,1.2359629594120796,-0.29269963894715173,1.7345666405852989,9.238031269388177
-2.251479617045584,-0.7778504133109048,-0.7216718015453087,1.8591871051859854,3.987391131215027
-2.251479617045584,1.2663245412809219,-0.27668112768263525,1.743003662651286,9.282965532415288
-2.251479617045584,1.2653345421916118,-0.2613342712145637,1.7429580533903202,9.282722624608157
-2.251479617045584,1.2623663543035877,-0.23069435092577173,1.7363850458313312,9.247715811988167
-2.233708654828221,-0.8139146893680889,-0.7191084427751608,1.8385757943326517,2.1944035047563775
-2.233708654828221,1.2885233355099555,-0.196901525076984,1.7693821931948117,3.2092235076495794
-2.215444061772978,-0.841087346906646,-0.7301149307386035,1.827853898743736,2.1816065532624695
-2.215444061772978,1.3054369002605895,-0.12964945189546923,1.7168850137041285,3.1140065538705866
-2.215444061772978,1.3012824081648178,-0.11377042755527472,1.7129785705872898,3.1069212281958567
-2.215444061772978,1.2967874354505309,-0.09795272686933068,1.718860252424674,3.117589150417324
-2.215444061772978,1.2919533513299608,-0.08220116806249551,1.7456709317297807,3.1662171193281243
-2.1966914014518335,1.315704023740328,-0.060004220846063654,1.704570444316543,3.0916709580240718
-2.1966914014518335,1.2977198681086732,-0.01221483805589632,1.6689441200456336,1.3927067759704852
-2.1774563861067815,-0.8324011594982417,-0.8408989617810698,1.8252120732301567,2.1784534435653753
-2.1774563861067815,-0.8209509790551884,-0.8552233262323925,1.826599364932234,2.1801092239702626
-2.1774563861067815,1.3803480331885891,-0.42587164282433265,1.8119750984325522,3.064640013382268
-2.1774563861067815,1.3258434500103624,-0.004569954265820333,1.6722362045886805,1.3954539670807815
-2.1774563861067815,1.3042743310098108,0.04357457358785097,1.6468682437119735,1.3742848155308907
-2.1774563861067815,1.2963988156427357,0.059410731375924265,1.636423211927498,1.3655686060624346
-2.1577448749098305,1.4038274867756426,-0.463254945069634,1.8305183008363033,3.096002607775502
-2.1577448749098305,1.306285325113157,0.10060369685685605,1.627506569566892,1.3581278127576342
-2.137562872178241,1.4289755339251162,-0.48441162307825625,1.8676834094485417,3.1588609103279444
-2.1169165255455518,1.4606385478156232,-0.47015276929843564,1.8759993438709237,3.1729258637599975
-2.0958121240889533,1.4916697490646638,-0.45500485907864424,1.8959547536721466,3.2066769607884127
-2.074256096413572,1.5191659100816972,-0.4579457678900911,1.9155297517391894,5.880988365204019
-2.0522550086942557,1.5491787579072025,-0.44149920925692837,1.916345254525812,5.883492091599063
-2.029815562675453,1.5759101926328265,-0.44397356499229307,1.8973767247967719,8.776708110374546
-2.029815562675453,1.5805985337837332,-0.40441662342089313,1.9199258537372996,8.881013765792247
-1.983649068276016,1.6329566897713725,-0.40776434157518354,1.9590870479402733,9.062161961762657
-1.983649068276016,1.6347267818087108,-0.38719916165157087,1.9584796778468931,9.059352445890088
-1.9599360826568002,1.6602787129625145,-0.3884688297399326,1.966137979577247,9.094777503038763
-1.9599360826568002,1.6616301373353193,-0.36751919847174414,1.9652665393620175,9.090746476250692
-1.9599360826568002,0.3510080877486392,0.8791722002252222,1.4675055129570223,4.443591875702311
-1.9112867484047782,1.7123539107613264,-0.34761352021904657,1.9733762821046164,4.553078047284317
-1.8610558625936626,1.7607943121724152,-0.3262718878155262,1.9996996679599919,8.08519261952027
-1.8610558625936626,1.7607943121724152,-0.30390655121835297,1.9993032999958407,8.083590023195574
-1.835366389169467,1.7840645321869146,-0.30374156818670445,2.005391212923625,8.108204693818697
-1.809304623820339,1.8063527309159877,-0.2805651920518926,2.0115005030954447,8.132905796988904
-1.782878505212471,1.8286341404438171,-0.2800911783262361,2.017489835143617,8.15712188505834
-1.7560960829975856,1.8493987750881131,-0.25599889810905907,2.0148607457167236,8.146491941586842
-1.7560960829975856,1.8478756750957157,-0.23238797035947997,2.016771634672778,8.154218054428565
-1.7289655153609376,1.869115816895227,-0.231332553840361,2.0347727211635718,8.227000109639482
-1.7289655153609376,1.8670598312350066,-0.20744582132537956,2.0397026940731755,5.04676555296209
-1.7014950665362478,1.8877612436868945,-0.20612219766107406,2.114804946975548,8.588794209441824
-1.673693104288341,1.9079435283856188,-0.20483176640721307,2.0493777638268846,8.323076743360149
-1.673693104288341,1.8984774991621192,-0.1316626150577959,2.097061236999963,8.51673220972395
-1.6455680973642415,1.9249393546771463,-0.17886317977845964,2.036136449544604,8.269300188886085
-1.6455680973642415,1.913777140575007,-0.10500697607047102,2.0324966459098315,8.254517963023343
-1.6455680973642415,1.909000625389378,-0.08050624506563597,2.024531144377488,8.222167909400602
-1.6455680973642415,1.8978724176692572,-0.03172659318913176,2.0095543222582926,8.161342988749103
-1.6171286129135112,1.9408092825974508,-0.15242852924936875,2.0261388437555214,15.718402015698333
-1.6171286129135112,1.9327512977997447,-0.10270319228206787,2.023722085065383,8.218882100964777
-1.6171286129135112,1.9166721620441118,-0.028619209080585344,2.0682625220904582,3.8646228921670636
-1.5593409563560967,1.6158455560543026,-1.20798746921483,2.1798363367219378,6.73957954750108
-1.5593409563560967,1.6348086558394732,-1.1875430246726633,2.1798363367219378,6.73957954750108
-1.5593409563560967,1.6533296796801453,-1.1668328222497961,2.1798363367219378,6.73957954750108
-1.5593409563560967,1.6714029858930404,-1.1458631704745108,2.1798363367219378,6.73957954750108
-1.4099859372424828,0.9961372820491282,1.0690163783006228,0.9010435082601495,0.15073487185111809
-1.3484806458083716,1.0085665920695797,1.0901868879224017,0.9122699271518351,0.15261293078775337
-1.158894721004422,1.039768951866238,1.143333028553736,0.9306665430084285,0.25487674112980724
-1.1266585929137838,1.0440650278593073,1.1506504193016944,0.9350707150876745,0.256082888525312
-1.0942660521583598,1.0480989741396227,1.1575213315567303,0.9388434695021806,0.2298188667348797
-1.0617269658198578,1.05186956192807,1.1639436723724101,0.9418569634687856,0.23055653791310587
-1.0290512456191898,1.0553756426670824,1.1699154854415075,0.9440277214838022,0.23108791631980796
-0.963329755583109,1.061590091948901,1.180500389840732,0.9457122021957975,0.2315002592298277
-0.9303040051502195,1.0642965675102554,1.185110256906441,0.9452508500702637,0.23138732515071844
-0.8971816535621066,1.0989167464571155,1.1765112415138004,0.9441566107110108,0.23111946702777342
-0.8639727902079275,1.1011649326227604,1.180174574619568,0.9433434482275843,0.3640464130478122
-0.7973360144382566,-0.7377779409296967,-1.8163122872094466,0.9827123490831897,1.0901290647424278
-0.763928400230189,-0.7391858447110318,-1.8186064124072234,0.9539774720330951,1.0582532827057698
-0.7304748644878736,-0.8044160892647885,-1.793332011043874,0.9283212120763628,1.0297926302091216
-0.6969855974823688,1.1404290836755473,1.1783014822297861,0.9162575748963324,0.3535936823387198
-0.6299406820791003,-1.1635956361582365,0.9663176456619177,1.5910670080293432,1.8434907847664574
-0.6299406820791003,-1.5259218008641162,0.6393967699543314,1.6915988914280782,5.347707472785742
-0.6299406820791003,-0.9309717138458551,-1.736340021836671,0.8994604178679881,1.0211839144877812
-0.6299406820791003,1.141304243965627,1.1796672954792193,0.9034948206485508,0.34866839779548664
-0.562875337922325,1.1729672578561345,1.1654084416993984,0.888692132476573,0.5102264569766978
-0.4958712738032737,-1.1884062909744606,-1.574894450295439,0.8797444470701589,2.0724963937122967
-0.4958712738032737,-1.16113419042607,-1.5941547054830647,0.8754033783900202,2.0622697316237697
-0.4958712738032737,-1.1334524945462985,-1.6130253449330798,0.8672586653827435,2.0430824683320057
-0.46241773806095826,-1.239950217846174,-1.5337404244462491,0.8824892065407121,1.4252936679509065
-0.46241773806095826,-1.1867328953855194,-1.5733578157791528,0.8797726495021034,2.072562832822761
-0.46241773806095826,1.20182186679343,1.147135060745478,0.8623966864344883,0.2811347174748868
-0.4290101238528907,-1.2891827141260725,-1.490841544014499,0.8902429729652801,1.4378166473888394
-0.4290101238528907,-1.2377782282452752,-1.5318809588879234,0.8831163706894778,1.426306590356502
-0.4290101238528907,1.2002681052734974,1.144903941884973,0.8533677798089164,0.27819136303810005
-0.39565860746198594,-1.473222937891255,-1.3110562134992827,0.9019047664499729,3.4040644227133456
-0.39565860746198594,-1.2864835695407328,-1.4886866481422205,0.8828735543792062,1.4259144217645918
-0.39565860746198594,1.1984046330702578,1.142228094964233,0.8509935800588571,0.27741739209588595
-0.3623733480832198,-1.5113618073227881,-1.261445483378259,0.905160862649921,3.4163539256004443
-0.3623733480832198,-1.4696762520305393,-1.3089240917912741,0.9062734190495905,3.420553053711592
-0.3623733480832198,-1.4480748907417813,-1.3322128915079048,0.9025474124508818,3.406489965264479
-0.3623733480832198,1.1962320178153962,1.1391083350721525,0.8335469504936909,0.27172992442486477
-0.3291644847290407,-1.422033325585867,-1.352643657973039,0.9058795369736152,3.4190664222938993
-0.3291644847290407,-1.399500036365307,-1.375250285317923,0.9016782065527209,1.4562855033282875
-0.3291644847290407,-1.3764845432675914,-1.3975339773321527,0.9017134713944023,1.4563424589886822
-0.3291644847290407,1.2247596112753292,1.1210009655235105,0.8262167085951272,0.2693403216845116
-0.3291644847290407,0.766192202952092,1.2829899468865111,0.977407005504114,1.3075813411419501
-0.3291644847290407,0.7317735060223931,1.291008042964115,1.0062187680657049,1.3461259013085904
-0.29604213314092787,-1.43958442078165,-1.3269200048188103,0.9060957566529133,3.419882501491136
-0.29604213314092787,1.2218851871748635,1.1170365172732133,0.8109925310278253,0.26437735635023346
-0.29604213314092787,0.8664512060387197,1.2516882317796039,0.9294751740590902,0.1820442056288877
-0.29604213314092787,0.7302600117038797,1.2865742758174714,0.9939149966386254,1.3296658372276842
-0.26301638270803834,-1.536654317069369,-1.205398119173199,0.9058107633177603,1.5179219881502972
-0.26301638270803834,-1.5172667007288574,-1.2296523467537255,0.8955404607892142,3.380043586721609
-0.26301638270803834,-1.4973610076443935,-1.2536279895461238,0.9095810124667649,3.4330369228461604
-0.26301638270803834,-1.4560198010755911,-1.3007143949985829,0.914193727063324,3.450446718463587
-0.26301638270803834,0.7627981858844664,1.2736812352870839,0.9572304150045936,1.2805889693700419
-0.23009729339388174,-1.530828222009458,-1.2023827166614827,0.9067644741114518,3.422406445696929
-0.23009729339388174,-1.5115062699198953,-1.226554797181821,0.9088301989766779,3.4302031231094565
-0.23009729339388174,-1.491667995769408,-1.2504492364576376,0.9131848822952727,3.446639029768825
-0.23009729339388174,1.2756837032053683,1.0776825856209884,0.7903600601930363,0.25765132881535374
-0.1972948926719575,-1.5614141963454458,-1.1501314809099423,0.8968495334110703,0.7875105877260622
-0.1972948926719575,-1.543210047459485,-1.1747451882004043,0.9030990431855684,0.7929981917579184
-0.1972948926719575,-1.5052295170500085,-1.2231796063653948,0.9142148756797562,1.8080490653533914
-0.1972948926719575,1.301282408164818,1.056885695917076,0.7819132173560531,0.13356442386484943
-0.1972948926719575,1.271639388301057,1.0725251000052152,0.7782237250411483,0.132934194186599
-0.1972948926719575,0.9257454599585704,1.2157073600268242,0.8519088494282585,0.08742930679911866
-0.16461917247128943,-1.5543970917319017,-1.1467734334416855,0.901756779654151,0.791819569588724
-0.16461917247128943,-1.5176113425000355,-1.1955420779043164,0.9157164495957812,1.8110187384440954
-0.16461917247128943,-1.4984383540789248,-1.2195278024202652,0.9157849309889438,1.8111541745676973
-0.16461917247128943,-1.4585613492373726,-1.2666655268267821,0.9291969493154824,1.837679215720382
-0.16461917247128943,1.2967874354505309,1.0513684219965926,0.7758433162079689,0.1325275788138068
-0.16461917247128943,0.9227606753586635,1.2095513990461455,0.8354143794223999,0.0857365199715151
-0.16461917247128943,0.7225459880331321,1.2639761171713346,0.9001611754033091,0.6310131131487888
-0.13208008613278746,-1.4715349985523165,-1.239207765600092,0.9350020028654107,1.849159910165952
-0.13208008613278746,-1.4514310010195037,-1.2625335380176197,0.93944612675193,1.8579490846292974
-0.13208008613278746,1.3210113255718716,1.0295116085976996,0.7617727289620239,0.13012407694527528
-0.13208008613278746,1.291953351329961,1.045434911841332,0.757290218316223,0.12935838589595547
-0.13208008613278746,0.7202054078136775,1.2571194097795986,0.9231493435549251,0.6471278223223319
-0.09968754537736371,1.315704023740328,1.0232379646249004,0.7515135543537635,0.12837163087393946
-0.09968754537736371,0.9484629427991246,1.1852308895910204,0.7940471882938207,0.08149110704145156
-0.09968754537736371,0.717701348659034,1.2497837924090518,0.8789798327919031,0.6161649889382482
-0.06745141728672552,1.3100518483264598,1.0165566532271448,0.737806569349346,0.12603023861402896
-0.06745141728672552,0.9765972086654224,1.1667217943464177,0.770769717470174,0.07910219754777273
-0.035381521297768045,-1.6020830298357311,-1.007018835676041,0.8798503677729341,0.7535498612839542
-0.035381521297768045,1.003919231856565,1.1474262825111665,0.7589838546923506,0.08714451515453922
-0.035381521297768045,0.972376508011959,1.1588356803717483,0.7774991067601696,0.0797928181948063
-0.035381521297768045,0.7122058941518064,1.2336849109319457,0.8493136489291357,0.5953689897927598
-0.035381521297768045,0.6788545908990582,1.240945061965154,0.8585938458691864,0.6018744091796283
-0.003487626211477342,-1.5919853838126576,-1.0031059546988286,0.881546162855347,0.7550022288636289
0.02822055278274004,-1.7550983630156083,-0.5224383833445689,0.7452633708498145,0.27590226588270234
0.02822055278274004,-1.7503488248126617,-0.5498938765922788,0.7482004182578352,0.2769895835566595
0.02822055278274004,-1.6357687217530557,-0.8972997445506204,0.843127324663207,0.36308870376322844
0.02822055278274004,-1.6229845823307756,-0.9230062081456691,0.8511071055274178,0.36652515779045164
0.02822055278274004,-1.5957695269749725,-0.9738558290934809,0.8617092385941953,0.7380128496773392
0.02822055278274004,-1.5813469010109487,-0.9989834971591122,0.8705334482787963,0.7455703642585999
0.02822055278274004,1.3189988908154027,0.9781850966884438,0.7129391653296365,0.1217824520090936
0.02822055278274004,0.7060663198762563,1.2156990867472537,0.8141631161954548,0.5707284613016473
0.05973335706639858,-1.7534548285092746,-0.4389372179506169,0.7424647686706918,0.7985728831307888
0.05973335706639858,-1.750499313537287,-0.4663821256851989,0.7365476085333895,0.7922085627883538
0.05973335706639858,-1.7469546769081112,-0.4937809481349548,0.7378028589376403,0.7935586725533846
0.05973335706639858,-1.7428219983524018,-0.521125339353148,0.7389240166432303,0.273555387908765
0.05973335706639858,-1.6479986875678247,-0.8420046905151966,0.8278297082335255,0.3565008592495437
0.05973335706639858,-1.6115448316317147,-0.9191565579495138,0.8545039739185467,0.3679880027308431
0.05973335706639858,1.050469475843956,1.0975682727181648,0.7223509025665127,0.082938416655936
0.05973335706639858,0.670002043819072,1.2131357279771056,0.8228652652024754,0.5768286690045008
0.09104118753404215,-1.646735254741143,-0.812611363575606,0.813395002996523,0.3502846232666794
0.09104118753404215,-1.6357687217530557,-0.8384862165513959,0.8208966660640115,0.35351517817762473
0.09104118753404215,-1.6121766442731815,-0.8897497939499015,0.8437071397864779,0.3633383983412269
0.09104118753404215,1.4623736887924108,0.8592460714730367,0.7254860055892869,0.25222583153976
0.09104118753404215,1.3315254961968022,0.945329059059978,0.6983913699553889,0.24280598477445167
0.09104118753404215,1.0746933659652962,1.0757114593192718,0.7097742084203036,0.08149439395790037
0.09104118753404215,0.6667535777593618,1.202931017763527,0.8190575612921951,0.5741594680169129
0.1221345075172243,-0.5498640128889934,1.1233408720234066,0.9527591991363136,0.07913236417678936
0.1221345075172243,-1.7270004496873261,-0.4372457564663045,0.7241785190630391,0.3549219181124879
0.1221345075172243,-1.633874053595036,-0.8091152801639524,0.8117093365864312,0.15928269219252356
0.1221345075172243,-1.6229845823307756,-0.834808310792038,0.822565082707773,0.16141292821424724
0.1221345075172243,-1.6115448316317147,-0.8603430299502892,0.8297646164884362,0.16282570132332302
0.1221345075172243,1.3234584871491017,0.9364721117097949,0.690136943308235,0.10933123956241202
0.1221345075172243,1.0684311138732505,1.0659383160727622,0.7062979305409185,0.03695250863481088
0.15300384568947048,-1.7100046233957984,-0.4632143430950579,0.7188707051554865,0.3523205436675649
0.15300384568947048,-1.7065342046429703,-0.4900394868777508,0.718043142485863,0.35191495288804137
0.15300384568947048,-1.6204592559756938,-0.8054687116284878,0.8097557848955719,0.15889934441194245
0.15300384568947048,-1.2189891238265014,-1.3591822581742388,0.9611395790027875,0.86615748491905
0.15300384568947048,-1.1963462969430847,-1.3789089914852979,0.9592489023816709,0.369912985350343
0.15300384568947048,-1.1732831487795354,-1.3983116749883617,0.9702978284873359,0.545777492101367
0.15300384568947048,-1.0769697237930054,-1.472565224236092,0.911870071471801,0.5129127842180569
0.15300384568947048,-1.0264796169258412,-1.507598890157823,0.8887265490212496,0.4998949114880461
0.15300384568947048,1.4440139194528043,0.8423867852022126,0.7029910321887158,0.11136757957344191
0.15300384568947048,1.1202517847088687,1.030004763555638,0.68700280293508,0.03594301485232383
0.15300384568947048,0.6918855081696303,1.1741565343316385,0.7932762684971167,0.25339091634863914
0.18363979895133553,-1.6833039002917312,-0.5417534881483242,0.7217227475104186,0.12174870695468062
0.18363979895133553,-1.6439138938783373,-0.6990444769339281,0.7760265075439133,0.13090930579912796
0.18363979895133553,-1.626306919957072,-0.750623938824869,0.7903583180767528,0.15509295634006193
0.18363979895133553,-1.5474830883579243,-0.9265669690367762,0.8472444869026304,0.1662557971633662
0.18363979895133553,-1.534083676441185,-0.9510172016034848,0.8660911847933879,0.7612729157711157
0.18363979895133553,-1.520161065166782,-0.9752737243464772,0.8707714525064104,0.7653867563355273
0.18363979895133553,-1.5057194954969813,-0.9993291484939473,0.8852638152221844,0.778125187824911
0.18363979895133553,-1.4752972338790282,-1.0468074544300328,0.8996519856343268,0.7907720368340903
0.18363979895133553,-1.425886694106178,-1.116335595692803,0.9267548857420734,0.8145948214936523
0.18363979895133553,-1.4084291902767216,-1.1390328495681443,0.9331575132696223,0.8409406733260606
0.18363979895133553,-1.3904867626633295,-1.1614791222320509,0.9392877772901586,0.846465130108318
0.18363979895133553,-1.372064876703265,-1.1836675763324274,0.9451998311472705,0.8517929407733359
0.18363979895133553,-1.353169143881448,-1.2055914530512106,0.9474755508985989,0.8538437684983126
0.18363979895133553,-1.2729649883947638,-1.2905088730408107,0.9777976802598253,0.881169393078417
0.18363979895133553,-1.2517891831070138,-1.3110113719958452,0.9660901127378678,0.8706187951622851
0.18363979895133553,-1.208132526904218,-1.3511001144487311,0.9610145340773362,0.8660447972298766
0.18363979895133553,-0.9915111356472506,-1.515211080109158,0.885937249308403,0.49832597362453496
0.18363979895133553,-0.9392411294533576,-1.547795756967053,0.8543932630158814,0.48058297016295703
0.18363979895133553,-0.9125891123808462,-1.5635273070476785,0.8317650513178906,0.4571311611115817
0.18363979895133553,-0.8856032092154369,-1.578878570792951,0.8251108587202097,0.45347407214923796
0.18363979895133553,-0.8582916401246522,-1.593844872059222,0.8034985341769407,0.4415961181559425
0.18363979895133553,-0.8306627244770104,-1.6084216519661447,0.7913211991863012,0.43490355602593295
0.18363979895133553,-0.8027248783078645,-1.6226044702853508,0.7739476124619536,0.4253551771184636
0.18363979895133553,-0.7744866117557984,-1.6363890067929883,0.7671369077834348,0.10312164742178578
0.18363979895133553,-0.6880557481043393,-1.6753115506522527,0.7505693304105292,0.061084526683074354
0.18363979895133553,-0.6587026921617574,-1.6874622030460067,0.7463827642012185,0.060743806106091536
0.18363979895133553,-0.6290930863893291,-1.699194817334502,0.7392852582508914,0.06016618086343885
0.18363979895133553,-0.5691403782461211,-1.721391764550934,0.7234564821801198,0.058877967696339975
0.18363979895133553,1.4342566701560517,0.8334269635363225,0.691692134720465,0.10957761241131485
0.18363979895133553,0.6879503548882344,1.1626285403889869,0.7898766997524364,0.25230501491226226
0.21403303529467868,-1.637006219809568,-0.6701736008404102,0.755073505532974,0.12737470624486655
0.21403303529467868,-1.6291010181168988,-0.6959322029326087,0.7636604505281736,0.1288232534237697
0.21403303529467868,-1.2817230535038195,-1.261971269193089,0.9621664193237499,0.8670828504426933
0.21403303529467868,-0.5026631159499615,-1.730310070522192,0.705959354631149,0.05745397698510523
0.21403303529467868,-0.47215681742127746,-1.7398237241073349,0.6983050806635567,0.30366055306248607
0.21403303529467868,-0.4414507927433038,-1.7489033897606667,0.695591849053303,0.30248069423835533
0.21403303529467868,1.4241184349924305,0.8241172927151486,0.6816240704613893,0.10798263339140876
0.21403303529467868,1.3232811514046847,0.89164873130442,0.666508323492906,0.1055880023417303
0.21403303529467868,1.105466531358414,1.0087739265292568,0.6811255411130333,0.03563552482745302
0.21403303529467868,0.6522983094237074,1.1575213315567303,0.7894906117575013,0.2521816894143079
0.24417429664528384,-0.3437207077400413,-1.761148895155747,0.6912964270339442,0.3006128140493757
0.24417429664528384,1.4136023021665836,0.8144606085546073,0.6689340045048529,0.10597227783138594
0.24417429664528384,1.1534823985815632,0.9708339990659482,0.6672667316585928,0.034910451520723675
0.27405440168295875,-1.6256201724271824,-0.5874973309762549,0.7159071216823643,0.12076765858515061
0.27405440168295875,-0.33905262979441303,-1.7483458389383848,0.69626206348214,0.3027721394673343
0.27405440168295875,-0.30818380536854084,-1.7555369653356123,0.6915629312983896,0.30072870441674654
0.27405440168295875,-0.2771652025612927,-1.762289317395533,0.6776936873865976,0.38473010923999423
0.27405440168295875,1.4027114749944405,0.8044598525742407,0.6632590579888299,0.10507325490113524
0.27405440168295875,1.1721278253732301,0.9456236428866615,0.6608490363205043,0.10469146015891023
0.30366424863825375,-1.6393644601373907,-0.302165175373933,0.655932153778718,0.5633476768029952
0.30366424863825375,-0.3342253705244554,-1.7351061988704783,0.6983115567879875,0.3036633692292028
0.30366424863825375,-0.3036416954006551,-1.742230897578559,0.696271339394864,0.3027761731323696
0.30366424863825375,0.6399538211259745,1.1187424360725913,0.7809090249169656,0.2790683835651385
0.33299481806494935,-0.359373417673929,-1.713949520861856,0.704973511875306,0.30656034509592645
0.33299481806494935,1.4931160389284162,0.6945519412401128,0.6707741379832928,0.20778637649769693
0.33299481806494935,1.4489466323443048,0.7310678582779473,0.6565743172225074,0.20338768379962824
0.33299481806494935,1.4032355008885942,0.7663091940646329,0.6505008222452229,0.10305209990863246
0.33299481806494935,1.3560383365337034,0.8002330124610252,0.6476219771273329,0.1025960343287516
0.33299481806494935,1.2061143008629545,0.8936943799122051,0.6497378924087989,0.1029312368458387
0.3620371755874662,-0.2941137198060383,-1.7143187841013647,0.7018066787479808,0.3984191755146748
0.3620371755874662,1.5425975810915504,0.6279350558776766,0.6807155353733555,0.21086593312344168
0.3620371755874662,1.5221325299162434,0.6470613211417112,0.6752134489613252,0.2091615463052942
0.3620371755874662,1.5012597250359128,0.6658945060304989,0.6642344939674479,0.2057605844215105
0.3620371755874662,1.4583164086634457,0.7026587786227003,0.651575362718073,0.20183915265637908
0.3620371755874662,1.413819951790238,0.7381830820512297,0.6432015714834936,0.1992451949593624
0.3620371755874662,1.3442822181706024,0.7890503441624388,0.6376518037142364,0.10101656314049613
0.3620371755874662,1.2214139422758428,0.8670387409248802,0.644870164001733,0.10216009311015266
0.3620371755874662,0.7506415034550691,1.0619142684290834,0.7485188262854375,0.26749330876508043
0.3620371755874662,0.6611579154658378,1.0841403450674856,0.7713775856992419,0.27566219507112993
0.3620371755874662,0.6310269050032983,1.0906994796561225,0.7754388054813741,0.27711352679318696
0.3620371755874662,0.5703651609005244,1.1025312307286161,0.7878496776370905,0.281548719524501
0.3620371755874662,0.5398529054151872,1.1078002431464797,0.7938195616345425,0.34335538485558265
0.3620371755874662,0.5092321081140054,1.1126358296501762,0.7996480210598373,0.34587640225778227
0.3620371755874662,0.47851209638846665,1.1170365172732133,0.8002834905474397,0.34615126556554776
0.39078247462236376,-0.28913075649297276,-1.6997212406813793,0.7085611792694647,0.4022537393771676
0.39078247462236376,-0.25931408954106816,-1.706211946718777,0.7042640476511479,0.39981423618021583
0.39078247462236376,1.4664600947709427,0.6740013434130858,0.6472467135917568,0.20049826268141463
0.39078247462236376,1.3085258895714664,0.7936512763015323,0.6335010343802918,0.10035899979626703
0.39078247462236376,1.2355592045513444,0.8399655485605776,0.6406849356201925,0.1014970707763355
0.39078247462236376,0.9449482885972177,0.9818275418632255,0.6985768336964862,0.03654855176975878
0.39078247462236376,0.9169719402001492,0.9924260312514712,0.7036583738768014,0.03681441076391925
0.39078247462236376,0.8887721758760059,1.0026262388281486,0.7132269773184295,0.03731502656075312
0.39078247462236376,0.8603575855461795,1.0124250575112175,0.716959358195294,0.03751029944860529
0.39078247462236376,0.8029186111089419,1.0308067121123035,0.7315850941897412,0.26144181096842783
0.39078247462236376,0.7447249974309925,1.047548599840074,0.7489490691581787,0.26764706186461606
0.39078247462236376,0.47543459615447253,1.1020957826326598,0.8000778795336098,0.3460623314397134
0.39078247462236376,0.4449461533545271,1.1060188715471233,0.8037311160050615,0.3476424870257523
0.39078247462236376,0.4143780782547964,1.1095090771704657,0.8133562552132236,0.35180570438248016
0.39078247462236376,0.35304029790361025,1.1151867181263033,0.8208875084282183,0.35506324107098763
0.4192219590730942,1.3654478958476122,0.732806687621815,0.6307320007645523,0.1953824835495865
0.4192219590730942,1.319712933843884,0.7656795215428134,0.6311949247737144,0.09999366676447005
0.4192219590730942,1.2485328538662888,0.8125077873338876,0.6347354249779109,0.1005545514986508
0.4192219590730942,1.224147596816043,0.8274364924637185,0.6389173722469721,0.10121705403984128
0.4192219590730942,1.0450030705812317,0.9219516143656401,0.6730703590260817,0.07167121074117576
0.4192219590730942,1.0182977386601137,0.9339778675935099,0.6808916834680775,0.07250405649770039
0.4192219590730942,0.9913381259921451,0.9456236428866615,0.6865633351905011,0.07310799654705358
0.4192219590730942,0.9366889820072628,0.9677596869827733,0.7006499978418019,0.03665701678525516
0.4192219590730942,0.8811222201904754,0.9883327772940407,0.7113486659980395,0.03721675596942854
0.4192219590730942,0.8530158472768707,0.998025306689055,0.722743877089547,0.037812937294683095
0.4192219590730942,0.320784047876749,1.1018342930033762,0.8260137940456673,0.5822626174567774
0.4192219590730942,0.22931792223600594,1.1057286560404394,0.8338135718632183,0.5877607327187331
0.44734696599719354,0.13824242506143505,1.089715024169629,0.8370877325375156,1.2370615226733856
0.44734696599719354,-1.2753373625237523,0.4399702904558457,0.6966696860254773,0.7308970555184248
0.44734696599719354,-0.22028088028620213,-1.6815468610304722,0.7056369385881148,0.40059363325884406
0.44734696599719354,1.2837807425956709,0.7692638504737737,0.6298189469483475,0.09977568486578103
0.44734696599719354,1.2603190838274214,0.7846989102973211,0.6321709641228379,0.10014829055752456
0.44734696599719354,1.2365294222660705,0.7997989640026401,0.63504580984717,0.10060372255495574
0.44734696599719354,1.2124190044729846,0.8145594119670951,0.6384436295386311,0.10114200389502755
0.44734696599719354,1.187995174714988,0.8289757580152479,0.6423608925832631,0.10176257525918128
0.44734696599719354,1.1632653727272222,0.8430436107884384,0.6467883181014865,0.10246396637390304
0.44734696599719354,1.1382371314469368,0.8567586850824327,0.6517092253085938,0.0693965922027041
0.44734696599719354,1.0873159149730007,0.8831138959871951,0.6651308346725782,0.07082577858762197
0.44734696599719354,0.9822334626029294,0.9314145088233622,0.6853981128834528,0.07298391903805494
0.47514892824510035,0.04939556821362402,1.0694680696749135,0.8464835183133667,0.2860356809439305
0.47514892824510035,-0.00999981397962063,1.0648217405638838,0.854296077961212,0.2886756269918336
0.47514892824510035,-0.039613601404130665,1.0618676887420022,0.8480303656589958,0.28655837692589714
0.47514892824510035,-0.18648336832666967,-1.6710068140129561,0.7138680388487968,0.23572512659025555
0.47514892824510035,1.2709035347290651,0.756572798283918,0.6304704145644221,0.11359799740849223
0.47514892824510035,1.0511634928719453,0.881574630435666,0.6724371923460879,0.041648676563850726
0.47514892824510035,0.9992292888944573,0.9054459221946086,0.6791867249799968,0.042066721705949515
0.50261937706979,-0.09520098468900473,1.0380634360418497,0.8546045942220928,0.28877987788019005
0.50261937706979,-0.12422697338353023,1.0339054197515036,0.8588479155657895,0.2894241703118767
0.50261937706979,-0.15315921872973104,-1.6595149256599113,0.706787601559138,0.23338710767696924
0.50261937706979,-0.12422697338352982,-1.6640838587853832,0.7067732384027602,0.23338236484402092
0.50261937706979,-0.09520098468900473,-1.6682418750757293,0.7073073783784934,0.23419590773959115
0.50261937706979,1.2347896853357618,0.7586244229171253,0.6318434352852456,0.05822153850610054
0.50261937706979,1.188025252003299,0.7877769725251816,0.6390395087510532,0.05888462439887886
0.50261937706979,1.1641804781775649,0.8018515265291115,0.6434954985562844,0.05929522387264079
0.50261937706979,1.0658881873584312,0.8547061225559615,0.6719809254398914,0.04162041680514128
0.50261937706979,1.040624242894757,0.8670387409248804,0.6767111748630175,0.041913393800662245
0.5297499447064383,-0.23397747846250974,0.9964412419513616,0.8565063553121902,0.28863508516496006
0.5565323669213236,-0.25626567719158316,0.9732648658165497,0.8541160155358811,0.28782956174925023
0.5565323669213236,-0.2838751313866126,0.9668330343954439,0.854008128143755,0.28779320464994645
0.5565323669213236,-0.3113422118578447,0.9600107170375364,0.8540409024947576,0.220453827352036
0.5565323669213236,-0.338658551866487,0.9527999918867843,0.8522226767360483,0.21998448820642055
0.5829584855291916,-0.3583755936736014,0.9281336476180861,0.8498608490563011,0.44649343487743703
0.5829584855291916,-0.4377211835433259,0.9033890377526971,0.8462902130389611,0.44461752125952003
0.5829584855291916,-1.1381023919338285,0.4507832785377229,0.6850356379429771,0.6097474096426359
0.5829584855291916,-1.1543535831760812,0.4319277455616667,0.6790598892400292,0.6044284202492683
0.5829584855291916,1.171777443491244,0.7312417808565311,0.6464497618821663,0.11647715210513983
0.5829584855291916,1.1491496338671239,0.7450945730135461,0.6528316034069492,0.07906466109716122
0.6090202508783193,-0.5306636301737855,0.848649024692192,0.8326002797883119,0.08186552080061713
0.6090202508783193,-1.119553952911111,0.4400345829442543,0.6822237179374926,0.6072445311871225
0.6347097243025153,-0.5202801135202344,0.8317294826664834,0.8329554960678031,0.08190044748323223
0.6347097243025153,-0.5691158147032006,0.8110759428033821,0.8274868083631599,0.08136273811908167
0.6347097243025153,-0.5931934761579888,0.8002330124610252,0.8245646246400185,0.08107541405953314
0.6347097243025153,-0.6170345425247276,0.7890503441624388,0.8210973491673431,0.08073449378936222
0.6600190805393148,-0.6049797061191217,0.7724241354244589,0.8214978121498271,0.08077386935939056
0.6600190805393148,-0.6512162024852924,0.7494052322433121,0.8141187022439472,0.15652509352188945
0.6600190805393148,-0.673956548800873,0.7374076197609087,0.8085570288540801,0.15545578821654796
0.6600190805393148,-0.6964356988141073,0.7250894065454958,0.8071182122485527,0.15517915668465926
0.6600190805393148,-1.0812720570437715,0.4178504819040042,0.6834243821965428,0.6083132375160436
0.7094667216861351,-0.7531540222768224,0.6415862650634198,0.7924173821003601,0.2516441275115047
0.7094667216861351,-0.793679789994817,0.6144458731710759,0.776499720311633,0.2465892332053875
0.7094667216861351,-0.8330149877389087,0.5861729859521965,0.7742420921103744,0.24587228921629267
0.7335899443656528,-0.889681043202467,0.5123047008696554,0.7271976181358687,0.6324392900271275
0.7335899443656528,-0.9072916740605875,0.4969620839708757,0.7159748367720458,0.6226789061908047
0.7573029299848686,-0.8884176103757847,0.48291137393006506,0.7205672009704003,0.6266728570519178
0.7573029299848686,-0.9543248390166277,0.4202190248394898,0.6909859496679672,0.6150437576863287
0.7573029299848686,-1.0001339127675617,0.37083147330841615,0.6757246154569527,0.48708968734421065
0.7573029299848686,0.877271107467771,0.7229610208953599,0.7593739966671011,0.09196804716430809
0.7805984553386501,-0.9642841927578883,0.37492472726584675,0.681921247286324,0.49155647069250463
0.7805984553386501,0.8428409254809025,0.7138724468360558,0.7794475766031643,0.09439916536748472
0.8034694243843059,-0.8660618081584762,0.43931826036455285,0.7190747122027399,0.625374848762215
0.8034694243843059,-0.8821081408583886,0.42432164916116716,0.7165425152081296,0.623172612630604
0.8034694243843059,-0.897829872264604,0.40909980624434855,0.7066659918173448,0.6145830610624673
0.8034694243843059,-0.9282804755646733,0.37799903934902196,0.7020836992515025,0.5060903831757284
0.8034694243843059,0.8088221396453245,0.7038132091275382,0.78899255633568,0.6526920919442222
0.8259088704031082,-0.7798721442998292,0.4813721083785355,0.7636589346082822,0.66414947241521
0.8259088704031082,-0.8298597724256356,0.4393182603645527,0.7327981665666181,0.6373100525062254
0.8259088704031082,-0.9069357958525963,0.36469294773553823,0.7076227221024172,0.4983914246138952
0.8259088704031082,-0.9213728014959044,0.34912816325550394,0.6983009288198491,0.5033636089474388
0.8479099581224246,-0.7091391098211142,0.5046177476170183,0.7953764787245288,0.1115642625667371
0.8479099581224246,-0.7266121068795911,0.49183614725449293,0.7974627019699158,0.11185688871818479
0.8479099581224246,-0.7607211559147864,0.46553952295022455,0.7750065780781672,0.10870705845653604
0.8479099581224246,0.7421839913102326,0.6808329329619656,0.8256266390411691,0.1101552252077023
0.8479099581224246,0.7207044942499929,0.688602335788836,0.8471970236782538,0.11303314903568622
0.869465985797806,-0.6196994070116333,0.5353342711042044,0.829440237629311,0.07043700627171884
0.869465985797806,-0.6378458788504787,0.52381612913224,0.8291543927011873,0.07041273199603076
0.869465985797806,-0.6907623868699172,0.4877428932970624,0.8145411483240071,0.06917175869964529
0.869465985797806,0.6884482442231316,0.675249910665909,0.8360525616268586,0.11154625330214275
0.8905703872544044,-0.029603919945912015,0.7196009622782804,0.9798272575956365,0.21251873831914295
0.8905703872544044,-0.05179868518230166,0.7164215289647574,0.9709694324289625,0.21059752841802992
0.8905703872544044,-0.09596643377897988,0.7091211020353806,0.9670126227356745,0.20916869218589262
0.8905703872544044,-0.13979366865180118,0.7005728325966977,0.9548243281628218,0.20653231539427663
0.8905703872544044,-0.22621349020658962,0.6797759328047327,0.9514540694020606,0.205803314964766
0.8905703872544044,-0.2475227891513678,0.6738149014250155,0.9549850088699031,0.20656707127291704
0.8905703872544044,-0.28974103467282475,0.6609910568860883,0.9533991799607404,0.20622405014665537
0.8905703872544044,-0.3519713977889875,0.6395308127763312,0.9483687945513829,0.15713113030222056
0.8905703872544044,-0.3926532580770714,0.6237664180971045,0.9225130602227668,0.15284720533211302
0.8905703872544044,-0.547878428034577,0.5494831463357782,0.8492646913444443,0.07212052137903664
0.8905703872544044,-0.5845727264575665,0.5282190473309221,0.8460153237658786,0.07184458139671229
0.8905703872544044,-0.07392176942858154,-1.3431063265186574,0.7955570774766968,0.4059137346489982
0.8905703872544044,0.614566984811167,0.6738149014250155,0.8449883143501351,0.11273846271870902
0.9112167338870936,-0.06823406547624276,0.6902159191445302,0.9794176670890892,0.2124299005602378
0.9112167338870936,-0.4382963835402266,0.5778090301809506,0.8925923773813552,0.14788977659627064
0.9112167338870936,-0.45738292715914086,0.5688564739918284,0.8802498336576864,0.1458447938245399
0.9112167338870936,-0.49496458228098794,0.5501463954039968,0.8665685133378378,0.07358998157999942
0.9112167338870936,0.6050439158275221,0.6519670557681662,0.8482684689490279,0.11317610141817827
0.9112167338870936,0.5842054029423246,0.6577963901604992,0.8531586929843877,0.11382855581397729
0.9112167338870936,0.5632448380408839,0.6633293741715699,0.8720269027504555,0.11634595508110983
0.9112167338870936,0.5209831265871027,0.6734996402323951,0.9195100416570067,0.14848745139146954
0.9112167338870936,0.4996948533614693,0.6781338243205857,0.9015501749311852,0.14558719504120507
0.9313987366186832,-0.041330709949634656,0.6705359559647033,0.9681851811589067,0.20999364078121552
0.9313987366186832,-0.06246967415774417,0.6671977251204363,0.9895153315461387,0.214620024272093
0.9313987366186832,-0.08353370688913042,0.6635602801572053,0.9914330172214809,0.2150359589555355
0.9313987366186832,-0.06246967415774408,-1.2973761641543158,0.8139853883548364,0.4153163340395336
0.9313987366186832,-0.04133070994963434,-1.3007143949985829,0.8117560370971816,0.4141788615432679
0.9313987366186832,0.492455533127169,0.6553922706837533,0.8976659682043419,0.14495995234518483
0.9313987366186832,0.47156058749517143,0.659624729075983,0.8989510242442028,0.1451674701401078
0.9313987366186832,0.4505779025489296,0.6635602801572053,0.8981525753553679,0.14503853229799807
0.9313987366186832,0.3871674490578761,0.6735739558325534,0.9146198295208288,0.14769775350458605
0.9313987366186832,0.3658979601595781,0.6763107993197967,0.9182381250952502,0.1482820554304885
0.9313987366186832,0.2588473423900988,0.6854517167965646,0.9699142612194819,0.25525612043072504
0.9511102478156342,-0.21857132324386186,0.6073943851216002,0.9640515495341985,0.20852820022699003
0.9511102478156342,-0.2579539473885078,0.5954318640995159,0.9609005983187429,0.2078466368953616
0.9890979234818309,-0.2912597759305338,0.5313006831981713,0.9673758156924125,0.5730511019746849
0.9890979234818309,0.52779986330489,-1.2021779594409725,0.7954639194501708,0.3021819039903527
1.0073625165370734,0.21269725562819164,-1.2202500340582276,0.8808516472507302,0.5453311184668742
1.0073625165370734,0.23213748624267905,-1.2196985085402263,0.8476596568755533,0.5247821130901665
1.0073625165370734,0.25156290813890814,-1.2188714302696415,0.8750604700723961,0.5417458278702593
1.0073625165370734,0.27096760414519094,-1.2177690511825268,0.8728814967449011,0.5403968357153364
1.0073625165370734,0.3482610445955926,-1.2106144981386082,0.8347345648707879,0.3171000896100531
1.0073625165370734,0.5555619428781626,-1.168623844412799,0.8193157718693299,0.25715052271198063
1.0073625165370734,0.5738409191914615,-1.1632188141247535,0.8073767261751171,0.25340333274400983
1.0251334787544364,-0.5487055482185967,-0.9642825569286047,0.8901376461521744,0.06333159415751095
1.0251334787544364,-0.5346480483033788,-0.9745657009943437,0.8930510167876344,0.06353887491629354
1.0251334787544364,-0.5203717868045782,-0.9846479621353323,0.8889930369520939,0.06325015739810438
1.0251334787544364,-0.5058811124097448,-0.9945262691971583,0.8942180187116338,0.06362190487525693
1.0251334787544364,-0.4458635171781906,-1.031940727101635,0.8962245375469846,0.34070841456243606
1.0251334787544364,-0.43036824707959864,-1.0407554025501342,0.9006421004062234,0.3423877937525223
1.0251334787544364,-0.414685980035058,-1.0493490330495956,0.8986663149210466,0.341636679816262
1.0251334787544364,-0.39882149301502823,-1.0577190008969204,0.8985264339884551,0.3415835027286305
1.0251334787544364,-0.38277961849593756,-1.0658627565188203,0.8910266979765378,0.3387324056439076
1.0251334787544364,-0.35018330554756644,-1.0814617780810063,0.8864595323175323,0.33699615350447953
1.0251334787544364,-0.33363879627097714,-1.088912292408213,0.8825555181008566,0.3355120047912193
1.0251334787544364,-0.3000822686668548,-1.1031039813519716,0.8817064318170845,0.3351892164391367
1.0251334787544364,-0.17826913007172884,-1.1451114445761115,0.8730087549185527,0.4442197134838627
1.0251334787544364,-0.12430339305186745,-1.1593568411806667,0.8792068559408104,0.44737354057292583
1.0251334787544364,-0.10611994381574506,-1.1635928133702955,0.8819274308607847,0.44875787149131957
1.0251334787544364,-0.08784826680791205,-1.1675703231455976,0.8864419121596656,0.4522855208018294
1.0251334787544364,-0.013990963125297075,-1.180872694877221,0.9034330962864611,0.46095486106700784
1.0251334787544364,0.004637888788704773,-1.1835413057743056,0.9139465806096725,0.46631911186261893
1.0251334787544364,0.13624592216518716,-1.1947791500524647,0.9107494382950755,1.182075279155677
1.0251334787544364,0.2118935647696801,-1.195315482644343,0.8907414515400046,0.5514538498613393
1.0251334787544364,0.5630887693384226,-1.139855307173668,0.8321200614183955,0.2611692781949678
1.0424053969266776,-0.5673891379278717,-0.9145886057930869,0.89600463728152,0.03205456645870733
1.0424053969266776,-0.5277403742346095,-0.9456948249008258,0.8976908531356688,0.06386899041452151
1.0424053969266776,-0.25306762415719397,-1.0933942744094303,0.8953048233224039,0.44434112708696727
1.0424053969266776,0.5349545034721243,-1.1213462119290651,0.86378414288824,0.3200512694415611
